{"learner":{"attributes":{"scikit_learn":"{\"_estimator_type\": \"classifier\"}"},"feature_names":["left_elbow","right_elbow","left_armpit","right_armpit","left_hip","right_hip","torso_angle","wrists_above_shoulder","torso_compression","left_elbow","right_elbow","left_armpit","right_armpit","left_hip","right_hip","torso_angle","wrists_above_shoulder","torso_compression","left_elbow","right_elbow","left_armpit","right_armpit","left_hip","right_hip","torso_angle","wrists_above_shoulder","torso_compression","left_elbow","right_elbow","left_armpit","right_armpit","left_hip","right_hip","torso_angle","wrists_above_shoulder","torso_compression","left_elbow","right_elbow","left_armpit","right_armpit","left_hip","right_hip","torso_angle","wrists_above_shoulder","torso_compression","left_elbow","right_elbow","left_armpit","right_armpit","left_hip","right_hip","torso_angle","wrists_above_shoulder","torso_compression","left_elbow","right_elbow","left_armpit","right_armpit","left_hip","right_hip","torso_angle","wrists_above_shoulder","torso_compression","left_elbow","right_elbow","left_armpit","right_armpit","left_hip","right_hip","torso_angle","wrists_above_shoulder","torso_compression","left_elbow","right_elbow","left_armpit","right_armpit","left_hip","right_hip","torso_angle","wrists_above_shoulder","torso_compression","left_elbow","right_elbow","left_armpit","right_armpit","left_hip","right_hip","torso_angle","wrists_above_shoulder","torso_compression","left_elbow","right_elbow","left_armpit","right_armpit","left_hip","right_hip","torso_angle","wrists_above_shoulder","torso_compression","left_elbow","right_elbow","left_armpit","right_armpit","left_hip","right_hip","torso_angle","wrists_above_shoulder","torso_compression","left_elbow","right_elbow","left_armpit","right_armpit","left_hip","right_hip","torso_angle","wrists_above_shoulder","torso_compression","left_elbow","right_elbow","left_armpit","right_armpit","left_hip","right_hip","torso_angle","wrists_above_shoulder","torso_compression","left_elbow","right_elbow","left_armpit","right_armpit","left_hip","right_hip","torso_angle","wrists_above_shoulder","torso_compression","left_elbow","right_elbow","left_armpit","right_armpit","left_hip","right_hip","torso_angle","wrists_above_shoulder","torso_compression","left_elbow","right_elbow","left_armpit","right_armpit","left_hip","right_hip","torso_angle","wrists_above_shoulder","torso_compression","left_elbow","right_elbow","left_armpit","right_armpit","left_hip","right_hip","torso_angle","wrists_above_shoulder","torso_compression","left_elbow","right_elbow","left_armpit","right_armpit","left_hip","right_hip","torso_angle","wrists_above_shoulder","torso_compression","left_elbow","right_elbow","left_armpit","right_armpit","left_hip","right_hip","torso_angle","wrists_above_shoulder","torso_compression","left_elbow","right_elbow","left_armpit","right_armpit","left_hip","right_hip","torso_angle","wrists_above_shoulder","torso_compression","left_elbow","right_elbow","left_armpit","right_armpit","left_hip","right_hip","torso_angle","wrists_above_shoulder","torso_compression","left_elbow","right_elbow","left_armpit","right_armpit","left_hip","right_hip","torso_angle","wrists_above_shoulder","torso_compression","left_elbow","right_elbow","left_armpit","right_armpit","left_hip","right_hip","torso_angle","wrists_above_shoulder","torso_compression","left_elbow","right_elbow","left_armpit","right_armpit","left_hip","right_hip","torso_angle","wrists_above_shoulder","torso_compression","left_elbow","right_elbow","left_armpit","right_armpit","left_hip","right_hip","torso_angle","wrists_above_shoulder","torso_compression","left_elbow","right_elbow","left_armpit","right_armpit","left_hip","right_hip","torso_angle","wrists_above_shoulder","torso_compression","left_elbow","right_elbow","left_armpit","right_armpit","left_hip","right_hip","torso_angle","wrists_above_shoulder","torso_compression","left_elbow","right_elbow","left_armpit","right_armpit","left_hip","right_hip","torso_angle","wrists_above_shoulder","torso_compression","left_elbow","right_elbow","left_armpit","right_armpit","left_hip","right_hip","torso_angle","wrists_above_shoulder","torso_compression"],"feature_types":[],"gradient_booster":{"model":{"cats":{"enc":[],"feature_segments":[],"sorted_idx":[]},"gbtree_model_param":{"num_parallel_tree":"1","num_trees":"600"},"iteration_indptr":[0,3,6,9,12,15,18,21,24,27,30,33,36,39,42,45,48,51,54,57,60,63,66,69,72,75,78,81,84,87,90,93,96,99,102,105,108,111,114,117,120,123,126,129,132,135,138,141,144,147,150,153,156,159,162,165,168,171,174,177,180,183,186,189,192,195,198,201,204,207,210,213,216,219,222,225,228,231,234,237,240,243,246,249,252,255,258,261,264,267,270,273,276,279,282,285,288,291,294,297,300,303,306,309,312,315,318,321,324,327,330,333,336,339,342,345,348,351,354,357,360,363,366,369,372,375,378,381,384,387,390,393,396,399,402,405,408,411,414,417,420,423,426,429,432,435,438,441,444,447,450,453,456,459,462,465,468,471,474,477,480,483,486,489,492,495,498,501,504,507,510,513,516,519,522,525,528,531,534,537,540,543,546,549,552,555,558,561,564,567,570,573,576,579,582,585,588,591,594,597,600],"tree_info":[0,1,2,0,1,2,0,1,2,0,1,2,0,1,2,0,1,2,0,1,2,0,1,2,0,1,2,0,1,2,0,1,2,0,1,2,0,1,2,0,1,2,0,1,2,0,1,2,0,1,2,0,1,2,0,1,2,0,1,2,0,1,2,0,1,2,0,1,2,0,1,2,0,1,2,0,1,2,0,1,2,0,1,2,0,1,2,0,1,2,0,1,2,0,1,2,0,1,2,0,1,2,0,1,2,0,1,2,0,1,2,0,1,2,0,1,2,0,1,2,0,1,2,0,1,2,0,1,2,0,1,2,0,1,2,0,1,2,0,1,2,0,1,2,0,1,2,0,1,2,0,1,2,0,1,2,0,1,2,0,1,2,0,1,2,0,1,2,0,1,2,0,1,2,0,1,2,0,1,2,0,1,2,0,1,2,0,1,2,0,1,2,0,1,2,0,1,2,0,1,2,0,1,2,0,1,2,0,1,2,0,1,2,0,1,2,0,1,2,0,1,2,0,1,2,0,1,2,0,1,2,0,1,2,0,1,2,0,1,2,0,1,2,0,1,2,0,1,2,0,1,2,0,1,2,0,1,2,0,1,2,0,1,2,0,1,2,0,1,2,0,1,2,0,1,2,0,1,2,0,1,2,0,1,2,0,1,2,0,1,2,0,1,2,0,1,2,0,1,2,0,1,2,0,1,2,0,1,2,0,1,2,0,1,2,0,1,2,0,1,2,0,1,2,0,1,2,0,1,2,0,1,2,0,1,2,0,1,2,0,1,2,0,1,2,0,1,2,0,1,2,0,1,2,0,1,2,0,1,2,0,1,2,0,1,2,0,1,2,0,1,2,0,1,2,0,1,2,0,1,2,0,1,2,0,1,2,0,1,2,0,1,2,0,1,2,0,1,2,0,1,2,0,1,2,0,1,2,0,1,2,0,1,2,0,1,2,0,1,2,0,1,2,0,1,2,0,1,2,0,1,2,0,1,2,0,1,2,0,1,2,0,1,2,0,1,2,0,1,2,0,1,2,0,1,2,0,1,2,0,1,2,0,1,2,0,1,2,0,1,2,0,1,2,0,1,2,0,1,2,0,1,2,0,1,2,0,1,2,0,1,2,0,1,2,0,1,2,0,1,2,0,1,2,0,1,2,0,1,2,0,1,2,0,1,2,0,1,2,0,1,2,0,1,2,0,1,2,0,1,2,0,1,2,0,1,2,0,1,2,0,1,2,0,1,2,0,1,2,0,1,2,0,1,2,0,1,2,0,1,2,0,1,2,0,1,2,0,1,2,0,1,2,0,1,2,0,1,2,0,1,2,0,1,2,0,1,2,0,1,2,0,1,2,0,1,2,0,1,2],"trees":[{"base_weights":[4.8579972E-2,-5.556989E-1,1.0335705E0,-6.659964E-1,7.391709E-1,-2.0234512E-1,1.4157689E0,-1.4389151E-1,1.2875912E-1,-1.3460484E-1,2.514559E-1,2.4545307E-1,-1.4360839E-1,7.482096E-2,2.8877386E-1],"categories":[],"categories_nodes":[],"categories_segments":[],"categories_sizes":[],"default_left":[0,0,0,0,0,0,0,0,0,0,0,0,0,0,0],"id":0,"left_children":[1,3,5,7,9,11,13,-1,-1,-1,-1,-1,-1,-1,-1],"loss_changes":[3.5923257E2,5.392325E1,1.08676956E2,2.4640228E1,2.2678905E1,4.1484425E1,4.593689E0,0E0,0E0,0E0,0E0,0E0,0E0,0E0,0E0],"parents":[2147483647,0,0,1,1,2,2,3,3,4,4,5,5,6,6],"right_children":[2,4,6,8,10,12,14,-1,-1,-1,-1,-1,-1,-1,-1],"split_conditions":[1.6653175E2,1.4671611E2,5E-1,1.4840012E2,5E-1,6.467613E1,1.6246362E2,-1.4389151E-1,1.2875912E-1,-1.3460484E-1,2.514559E-1,2.4545307E-1,-1.4360839E-1,7.482096E-2,2.8877386E-1],"split_indices":[86,20,268,236,106,261,85,0,0,0,0,0,0,0,0],"split_type":[0,0,0,0,0,0,0,0,0,0,0,0,0,0,0],"sum_hessian":[6.0157526E2,3.7311185E2,2.2846341E2,3.4427228E2,2.8839563E1,5.407418E1,1.7438924E2,3.3120435E2,1.3067927E1,7.660509E0,2.1179054E1,1.3969164E1,4.010502E1,4.9568E0,1.6943243E2],"tree_param":{"num_deleted":"0","num_feature":"270","num_nodes":"15","size_leaf_vector":"1"}},{"base_weights":[1.1593847E-1,9.611459E-1,-6.723231E-1,-4.4057575E-1,1.1955767E0,-7.7435374E-1,-2.2653684E-1,-1.4595859E-1,1.2630557E-1,1.2429718E-1,2.733176E-1,-1.5563823E-1,-6.7093857E-3,-1.1132189E-1,1.8588339E-1],"categories":[],"categories_nodes":[],"categories_segments":[],"categories_sizes":[],"default_left":[0,0,0,0,0,0,0,0,0,0,0,0,0,0,0],"id":1,"left_children":[1,3,5,7,9,11,13,-1,-1,-1,-1,-1,-1,-1,-1],"loss_changes":[4.111516E2,9.836795E1,1.4352249E1,1.3915547E1,2.4220306E1,7.115936E-1,2.3754429E1,0E0,0E0,0E0,0E0,0E0,0E0,0E0,0E0],"parents":[2147483647,0,0,1,1,2,2,3,3,4,4,5,5,6,6],"right_children":[2,4,6,8,10,12,14,-1,-1,-1,-1,-1,-1,-1,-1],"split_conditions":[5E-1,6.05765E1,-1.1762261E0,-1.1842123E0,-1.4268733E0,-8.050746E-1,9.999956E-1,-1.4595859E-1,1.2630557E-1,1.2429718E-1,2.733176E-1,-1.5563823E-1,-6.7093857E-3,-1.1132189E-1,1.8588339E-1],"split_indices":[25,28,114,87,141,6,152,0,0,0,0,0,0,0,0],"split_type":[0,0,0,0,0,0,0,0,0,0,0,0,0,0,0],"sum_hessian":[6.1514825E2,2.9674567E2,3.184026E2,4.239224E1,2.5435344E2,2.585005E2,5.9902077E1,3.363732E1,8.754919E0,5.944129E1,1.9491214E2,2.5711813E2,1.3823557E0,4.700009E1,1.2901986E1],"tree_param":{"num_deleted":"0","num_feature":"270","num_nodes":"15","size_leaf_vector":"1"}},{"base_weights":[-1.8027264E-1,6.637514E-1,-6.781168E-1,1.3972201E0,-1.2166195E-1,-2.5005385E-1,-7.0322824E-1,3.0703014E-1,-5.9218507E-2,2.131586E-1,-1.3172714E-1,-1.3292071E-1,1.413489E-1,9.632829E-3,-1.4124446E-1],"categories":[],"categories_nodes":[],"categories_segments":[],"categories_sizes":[],"default_left":[0,0,0,0,0,0,0,0,0,0,0,0,0,0,0],"id":2,"left_children":[1,3,5,7,9,11,13,-1,-1,-1,-1,-1,-1,-1,-1],"loss_changes":[2.3518858E2,1.1985979E2,3.606598E0,2.5566025E1,6.526275E1,8.819052E0,7.8053284E-1,0E0,0E0,0E0,0E0,0E0,0E0,0E0,0E0],"parents":[2147483647,0,0,1,1,2,2,3,3,4,4,5,5,6,6],"right_children":[2,4,6,8,10,12,14,-1,-1,-1,-1,-1,-1,-1,-1],"split_conditions":[1.18326355E2,-1.2809303E0,1.2781003E2,1.3758514E2,8.02168E1,5E-1,1.2443375E2,3.0703014E-1,-5.9218507E-2,2.131586E-1,-1.3172714E-1,-1.3292071E-1,1.413489E-1,9.632829E-3,-1.4124446E-1],"split_indices":[76,240,67,20,99,232,76,0,0,0,0,0,0,0,0],"split_type":[0,0,0,0,0,0,0,0,0,0,0,0,0,0,0],"sum_hessian":[5.576452E2,2.0676732E2,3.5087787E2,1.065165E2,1.00250824E2,2.0050165E1,3.3082773E2,9.857998E1,7.9365234E0,3.0910671E1,6.934016E1,1.42022E1,5.847965E0,1.2531353E0,3.295746E2],"tree_param":{"num_deleted":"0","num_feature":"270","num_nodes":"15","size_leaf_vector":"1"}},{"base_weights":[4.17072E-2,-4.8771742E-1,8.424649E-1,-5.872181E-1,8.161308E-1,-1.23946644E-1,1.0927413E0,-1.2513675E-1,9.491343E-2,-1.1401361E-1,2.1632683E-1,2.0325612E-1,-1.3209085E-1,-1.9925209E-3,2.2468331E-1],"categories":[],"categories_nodes":[],"categories_segments":[],"categories_sizes":[],"default_left":[0,0,0,0,0,0,0,0,0,0,0,0,0,0,0],"id":3,"left_children":[1,3,5,7,9,11,13,-1,-1,-1,-1,-1,-1,-1,-1],"loss_changes":[2.5124504E2,4.6770187E1,5.7182327E1,1.3860527E1,1.0081665E1,3.0900219E1,6.3515625E0,0E0,0E0,0E0,0E0,0E0,0E0,0E0,0E0],"parents":[2147483647,0,0,1,1,2,2,3,3,4,4,5,5,6,6],"right_children":[2,4,6,8,10,12,14,-1,-1,-1,-1,-1,-1,-1,-1],"split_conditions":[1.6694388E2,1.4797476E2,5E-1,1.4980132E2,5E-1,5.882235E1,1.6244203E2,-1.2513675E-1,9.491343E-2,-1.1401361E-1,2.1632683E-1,2.0325612E-1,-1.3209085E-1,-1.9925209E-3,2.2468331E-1],"split_indices":[266,155,88,254,7,27,247,0,0,0,0,0,0,0,0],"split_type":[0,0,0,0,0,0,0,0,0,0,0,0,0,0,0],"sum_hessian":[5.9067255E2,3.5581485E2,2.3485768E2,3.310974E2,2.4717436E1,4.841476E1,1.8644292E2,3.1991837E2,1.1179059E1,3.7888174E0,2.0928617E1,1.5205215E1,3.3209545E1,5.0644045E0,1.8137852E2],"tree_param":{"num_deleted":"0","num_feature":"270","num_nodes":"15","size_leaf_vector":"1"}},{"base_weights":[1.0021699E-1,7.748637E-1,-6.119135E-1,-3.5467386E-1,9.550539E-1,-6.992193E-1,-1.3230735E-1,-1.3510858E-1,1.089368E-1,1.05022386E-1,2.1692395E-1,-1.4332478E-1,-6.327796E-2,-1.4169948E-1,1.9173835E-1],"categories":[],"categories_nodes":[],"categories_segments":[],"categories_sizes":[],"default_left":[0,0,0,0,0,0,0,0,0,0,0,0,0,0,0],"id":4,"left_children":[1,3,5,7,9,11,13,-1,-1,-1,-1,-1,-1,-1,-1],"loss_changes":[2.928645E2,6.4036545E1,1.232811E1,1.300358E1,1.448085E1,1.4437866E0,3.0171175E1,0E0,0E0,0E0,0E0,0E0,0E0,0E0,0E0],"parents":[2147483647,0,0,1,1,2,2,3,3,4,4,5,5,6,6],"right_children":[2,4,6,8,10,12,14,-1,-1,-1,-1,-1,-1,-1,-1],"split_conditions":[5E-1,5.9152275E1,-4.8803562E-1,-1.1586475E0,-1.2809303E0,-1.1718563E0,8.249613E-1,-1.3510858E-1,1.089368E-1,1.05022386E-1,2.1692395E-1,-1.4332478E-1,-6.327796E-2,-1.4169948E-1,1.9173835E-1],"split_indices":[25,46,114,6,60,78,8,0,0,0,0,0,0,0,0],"split_type":[0,0,0,0,0,0,0,0,0,0,0,0,0,0,0],"sum_hessian":[6.075931E2,3.1196274E2,2.9563034E2,4.2786102E1,2.6917664E2,2.4971518E2,4.591516E1,3.1718554E1,1.1067548E1,6.3503635E1,2.05673E2,2.3802205E2,1.16931305E1,3.0276049E1,1.5639113E1],"tree_param":{"num_deleted":"0","num_feature":"270","num_nodes":"15","size_leaf_vector":"1"}},{"base_weights":[-1.5934582E-1,5.451278E-1,-6.368375E-1,1.0519769E0,-1.09172024E-1,-2.2370087E-1,-6.624755E-1,2.3755978E-1,-4.452653E-3,1.6934715E-1,-1.186909E-1,-1.2476703E-1,1.13854825E-1,5.3913137E-3,-1.3310368E-1],"categories":[],"categories_nodes":[],"categories_segments":[],"categories_sizes":[],"default_left":[0,0,0,0,0,0,0,0,0,0,0,0,0,0,0],"id":5,"left_children":[1,3,5,7,9,11,13,-1,-1,-1,-1,-1,-1,-1,-1],"loss_changes":[1.8119377E2,7.232072E1,3.2507324E0,1.7941147E1,4.491884E1,6.7835894E0,6.507416E-1,0E0,0E0,0E0,0E0,0E0,0E0,0E0,0E0],"parents":[2147483647,0,0,1,1,2,2,3,3,4,4,5,5,6,6],"right_children":[2,4,6,8,10,12,14,-1,-1,-1,-1,-1,-1,-1,-1],"split_conditions":[1.18326355E2,-1.2950376E0,1.2781003E2,1.15753E2,7.951639E1,5E-1,1.2443375E2,2.3755978E-1,-4.452653E-3,1.6934715E-1,-1.186909E-1,-1.2476703E-1,1.13854825E-1,5.3913137E-3,-1.3310368E-1],"split_indices":[76,159,67,83,9,232,76,0,0,0,0,0,0,0,0],"split_type":[0,0,0,0,0,0,0,0,0,0,0,0,0,0,0],"sum_hessian":[5.366255E2,2.1672934E2,3.1989615E2,1.2178307E2,9.494626E1,1.9260092E1,3.0063605E2,1.08019844E2,1.3763234E1,3.1675226E1,6.3271034E1,1.2942578E1,6.3175125E0,1.2865305E0,2.9934952E2],"tree_param":{"num_deleted":"0","num_feature":"270","num_nodes":"15","size_leaf_vector":"1"}},{"base_weights":[3.602482E-2,-4.6218652E-1,6.9467926E-1,-5.67442E-1,5.497383E-1,-1.7206354E-1,9.169643E-1,-1.2942766E-1,4.4312403E-2,-1.1595825E-1,1.7411709E-1,1.6259374E-1,-1.2562442E-1,5.348227E-2,1.866696E-1],"categories":[],"categories_nodes":[],"categories_segments":[],"categories_sizes":[],"default_left":[0,0,0,0,0,0,0,0,0,0,0,0,0,0,0],"id":6,"left_children":[1,3,5,7,9,11,13,-1,-1,-1,-1,-1,-1,-1,-1],"loss_changes":[1.8473236E2,3.4454666E1,4.6862785E1,1.843209E1,1.1634002E1,2.3117155E1,1.8053589E0,0E0,0E0,0E0,0E0,0E0,0E0,0E0,0E0],"parents":[2147483647,0,0,1,1,2,2,3,3,4,4,5,5,6,6],"right_children":[2,4,6,8,10,12,14,-1,-1,-1,-1,-1,-1,-1,-1],"split_conditions":[1.6653175E2,1.4671611E2,5E-1,1.2043992E2,5E-1,6.467613E1,1.6246362E2,-1.2942766E-1,4.4312403E-2,-1.1595825E-1,1.7411709E-1,1.6259374E-1,-1.2562442E-1,5.348227E-2,1.866696E-1],"split_indices":[86,20,268,236,106,261,85,0,0,0,0,0,0,0,0],"split_type":[0,0,0,0,0,0,0,0,0,0,0,0,0,0,0],"sum_hessian":[5.60974E2,3.1955695E2,2.4141707E2,2.8984766E2,2.9709291E1,4.9322533E1,1.9209454E2,2.6341977E2,2.6427904E1,6.393648E0,2.3315643E1,1.5361317E1,3.3961216E1,5.15218E0,1.8694235E2],"tree_param":{"num_deleted":"0","num_feature":"270","num_nodes":"15","size_leaf_vector":"1"}},{"base_weights":[8.876331E-2,6.633505E-1,-5.6446385E-1,-2.363943E-1,8.2058513E-1,-1.3557024E-1,-1.3812944E-1,-1.1798419E-1,9.9682E-2,6.74913E-2,1.8599692E-1,1.3456038E-1,-9.516984E-2],"categories":[],"categories_nodes":[],"categories_segments":[],"categories_sizes":[],"default_left":[0,0,0,0,0,0,0,0,0,0,0,0,0],"id":7,"left_children":[1,3,5,7,9,-1,11,-1,-1,-1,-1,-1,-1],"loss_changes":[2.1856702E2,4.4013123E1,1.3083473E1,1.2465081E1,1.3633652E1,0E0,1.6347502E1,0E0,0E0,0E0,0E0,0E0,0E0],"parents":[2147483647,0,0,1,1,2,2,3,3,4,4,6,6],"right_children":[2,4,6,8,10,-1,12,-1,-1,-1,-1,-1,-1],"split_conditions":[5E-1,6.3202442E1,-1.1947958E0,-1.1859883E0,7.035336E1,-1.3557024E-1,5E-1,-1.1798419E-1,9.9682E-2,6.74913E-2,1.8599692E-1,1.3456038E-1,-9.516984E-2],"split_indices":[268,235,267,240,256,0,160,0,0,0,0,0,0],"split_type":[0,0,0,0,0,0,0,0,0,0,0,0,0],"sum_hessian":[5.803261E2,3.0873938E2,2.7158673E2,4.585269E1,2.628867E2,2.1406445E2,5.7522274E1,3.1091314E1,1.4761377E1,4.9291348E1,2.1359532E2,1.6620651E1,4.0901623E1],"tree_param":{"num_deleted":"0","num_feature":"270","num_nodes":"13","size_leaf_vector":"1"}},{"base_weights":[-1.4216071E-1,4.5809937E-1,-6.1875063E-1,8.593164E-1,-1.2823507E-1,-2.2408402E-1,-6.362619E-1,1.9367404E-1,-9.5348895E-2,1.4162475E-1,-1.14554465E-1,-1.1820936E-1,9.030395E-2,-4.9558342E-3,-1.2791625E-1],"categories":[],"categories_nodes":[],"categories_segments":[],"categories_sizes":[],"default_left":[0,0,0,0,0,0,0,0,0,0,0,0,0,0,0],"id":8,"left_children":[1,3,5,7,9,11,13,-1,-1,-1,-1,-1,-1,-1,-1],"loss_changes":[1.4486203E2,5.286334E1,1.8072968E0,1.9879448E1,3.4601353E1,3.6212769E0,5.313873E-1,0E0,0E0,0E0,0E0,0E0,0E0,0E0,0E0],"parents":[2147483647,0,0,1,1,2,2,3,3,4,4,5,5,6,6],"right_children":[2,4,6,8,10,12,14,-1,-1,-1,-1,-1,-1,-1,-1],"split_conditions":[1.2402113E2,-1.241594E0,1.2781003E2,1.2693271E2,7.951639E1,5E-1,9.270615E-1,1.9367404E-1,-9.5348895E-2,1.4162475E-1,-1.14554465E-1,-1.1820936E-1,9.030395E-2,-4.9558342E-3,-1.2791625E-1],"split_indices":[166,168,157,191,9,232,156,0,0,0,0,0,0,0,0],"split_type":[0,0,0,0,0,0,0,0,0,0,0,0,0,0,0],"sum_hessian":[5.0438187E2,2.232454E2,2.8113647E2,1.3227005E2,9.097535E1,1.253012E1,2.6860635E2,1.2254289E2,9.72716E0,3.1367374E1,5.9607975E1,8.2008705E0,4.32925E0,1.49593E0,2.671104E2],"tree_param":{"num_deleted":"0","num_feature":"270","num_nodes":"15","size_leaf_vector":"1"}},{"base_weights":[3.1129861E-2,-4.2027262E-1,6.222355E-1,-5.3034633E-1,4.6514758E-1,-1.21824294E-1,7.976769E-1,-1.1173626E-1,8.18659E-2,-1.15999036E-1,1.5445824E-1,1.5742268E-1,-1.142834E-1,-1.1093324E-2,1.6441952E-1],"categories":[],"categories_nodes":[],"categories_segments":[],"categories_sizes":[],"default_left":[0,0,0,0,0,0,0,0,0,0,0,0,0,0,0],"id":9,"left_children":[1,3,5,7,9,11,13,-1,-1,-1,-1,-1,-1,-1,-1],"loss_changes":[1.3902986E2,2.9044418E1,2.9545647E1,7.238533E0,1.1106812E1,1.8393879E1,3.8516312E0,0E0,0E0,0E0,0E0,0E0,0E0,0E0,0E0],"parents":[2147483647,0,0,1,1,2,2,3,3,4,4,5,5,6,6],"right_children":[2,4,6,8,10,12,14,-1,-1,-1,-1,-1,-1,-1,-1],"split_conditions":[1.6653175E2,1.3049887E2,5E-1,9.999978E-1,5E-1,6.467613E1,1.6244203E2,-1.1173626E-1,8.18659E-2,-1.15999036E-1,1.5445824E-1,1.5742268E-1,-1.142834E-1,-1.1093324E-2,1.6441952E-1],"split_indices":[266,155,88,98,7,81,247,0,0,0,0,0,0,0,0],"split_type":[0,0,0,0,0,0,0,0,0,0,0,0,0,0,0],"sum_hessian":[5.190695E2,2.9447806E2,2.2459149E2,2.622737E2,3.2204334E1,4.291052E1,1.8168097E2,2.5499019E2,7.283523E0,7.112771E0,2.5091564E1,1.3952382E1,2.8958136E1,5.020409E0,1.7666057E2],"tree_param":{"num_deleted":"0","num_feature":"270","num_nodes":"15","size_leaf_vector":"1"}},{"base_weights":[8.047128E-2,5.864565E-1,-5.352024E-1,-3.939844E-1,7.003398E-1,-6.210772E-1,-1.0961673E-1,-1.0863298E-1,1.3186295E-1,4.4286445E-2,1.6069381E-1,-8.336157E-3,-1.2679523E-1,-1.2718107E-1,1.4276509E-1],"categories":[],"categories_nodes":[],"categories_segments":[],"categories_sizes":[],"default_left":[0,0,0,0,0,0,0,0,0,0,0,0,0,0,0],"id":10,"left_children":[1,3,5,7,9,11,13,-1,-1,-1,-1,-1,-1,-1,-1],"loss_changes":[1.693857E2,3.3591652E1,8.89875E0,5.3378425E0,1.3042984E1,1.497757E0,1.8832596E1,0E0,0E0,0E0,0E0,0E0,0E0,0E0,0E0],"parents":[2147483647,0,0,1,1,2,2,3,3,4,4,5,5,6,6],"right_children":[2,4,6,8,10,12,14,-1,-1,-1,-1,-1,-1,-1,-1],"split_conditions":[5E-1,4.9051907E1,-4.8803562E-1,8.2817856E1,6.408385E1,4.2588615E0,8.249613E-1,-1.0863298E-1,1.3186295E-1,4.4286445E-2,1.6069381E-1,-8.336157E-3,-1.2679523E-1,-1.2718107E-1,1.4276509E-1],"split_indices":[25,10,114,55,41,45,8,0,0,0,0,0,0,0,0],"split_type":[0,0,0,0,0,0,0,0,0,0,0,0,0,0,0],"sum_hessian":[5.417288E2,2.9737863E2,2.4435017E2,3.069142E1,2.6668723E2,2.0294127E2,4.140891E1,2.7308056E1,3.3833642E0,4.781107E1,2.1887614E2,4.5117884E0,1.9842947E2,2.5401644E1,1.6007267E1],"tree_param":{"num_deleted":"0","num_feature":"270","num_nodes":"15","size_leaf_vector":"1"}},{"base_weights":[-1.2827514E-1,4.0209287E-1,-5.910511E-1,7.017258E-1,-2.1122211E-1,-2.0408283E-1,-6.09377E-1,1.7249283E-1,-3.0501341E-2,9.6408024E-2,-1.1456728E-1,-1.123649E-1,7.876912E-2,-9.06203E-3,-1.2256604E-1],"categories":[],"categories_nodes":[],"categories_segments":[],"categories_sizes":[],"default_left":[0,0,0,0,0,0,0,0,0,0,0,0,0,0,0],"id":11,"left_children":[1,3,5,7,9,11,13,-1,-1,-1,-1,-1,-1,-1,-1],"loss_changes":[1.14780945E2,4.022013E1,1.645874E0,2.027739E1,1.841011E1,2.957266E0,4.3548584E-1,0E0,0E0,0E0,0E0,0E0,0E0,0E0,0E0],"parents":[2147483647,0,0,1,1,2,2,3,3,4,4,5,5,6,6],"right_children":[2,4,6,8,10,12,14,-1,-1,-1,-1,-1,-1,-1,-1],"split_conditions":[1.2402113E2,1.3290565E2,1.2781003E2,1.474977E2,-1.5266455E0,5E-1,9.270615E-1,1.7249283E-1,-3.0501341E-2,9.6408024E-2,-1.1456728E-1,-1.123649E-1,7.876912E-2,-9.06203E-3,-1.2256604E-1],"split_indices":[166,261,157,81,249,232,156,0,0,0,0,0,0,0,0],"split_type":[0,0,0,0,0,0,0,0,0,0,0,0,0,0,0],"sum_hessian":[4.656825E2,2.170555E2,2.4862701E2,1.4572023E2,7.1335266E1,1.1790762E1,2.3683626E2,1.2263477E2,2.3085451E1,2.4339745E1,4.699552E1,7.4148345E0,4.3759274E0,1.5269713E0,2.3530928E2],"tree_param":{"num_deleted":"0","num_feature":"270","num_nodes":"15","size_leaf_vector":"1"}},{"base_weights":[2.711272E-2,-4.1279548E-1,5.459362E-1,-5.1700586E-1,4.4380724E-1,-1.7825891E-1,7.322202E-1,-1.1259468E-1,8.990697E-2,-1.0492545E-1,1.3789834E-1,1.2692027E-1,-1.1376335E-1,-1.0233227E-2,1.4987741E-1],"categories":[],"categories_nodes":[],"categories_segments":[],"categories_sizes":[],"default_left":[0,0,0,0,0,0,0,0,0,0,0,0,0,0,0],"id":12,"left_children":[1,3,5,7,9,11,13,-1,-1,-1,-1,-1,-1,-1,-1],"loss_changes":[1.0825756E2,2.3145977E1,2.9488586E1,1.0442421E1,7.1146398E0,1.4751526E1,2.3688126E0,0E0,0E0,0E0,0E0,0E0,0E0,0E0,0E0],"parents":[2147483647,0,0,1,1,2,2,3,3,4,4,5,5,6,6],"right_children":[2,4,6,8,10,12,14,-1,-1,-1,-1,-1,-1,-1,-1],"split_conditions":[1.6534285E2,1.4671611E2,5E-1,1.4739848E2,5E-1,6.467613E1,1.6219865E2,-1.1259468E-1,8.990697E-2,-1.0492545E-1,1.3789834E-1,1.2692027E-1,-1.1376335E-1,-1.0233227E-2,1.4987741E-1],"split_indices":[68,20,268,245,106,261,67,0,0,0,0,0,0,0,0],"split_type":[0,0,0,0,0,0,0,0,0,0,0,0,0,0,0],"sum_hessian":[4.7233813E2,2.5571925E2,2.1661888E2,2.2833723E2,2.7382019E1,4.4329018E1,1.7228987E2,2.1836937E2,9.967857E0,5.3111706E0,2.2070848E1,1.4183766E1,3.014525E1,3.6520903E0,1.6863777E2],"tree_param":{"num_deleted":"0","num_feature":"270","num_nodes":"15","size_leaf_vector":"1"}},{"base_weights":[7.392796E-2,5.290889E-1,-5.0507534E-1,-3.4276217E-1,6.465834E-1,-6.127876E-1,-1.17411554E-1,-1.19783044E-1,5.7203006E-2,-4.432986E-3,1.4043076E-1,5.731664E-2,-1.2422804E-1,-7.577151E-2,1.5187576E-1],"categories":[],"categories_nodes":[],"categories_segments":[],"categories_sizes":[],"default_left":[0,0,0,0,0,0,0,0,0,0,0,0,0,0,0],"id":13,"left_children":[1,3,5,7,9,11,13,-1,-1,-1,-1,-1,-1,-1,-1],"loss_changes":[1.3145485E2,2.8821121E1,9.097767E0,5.6168456E0,9.171677E0,1.4671936E0,1.1516956E1,0E0,0E0,0E0,0E0,0E0,0E0,0E0,0E0],"parents":[2147483647,0,0,1,1,2,2,3,3,4,4,5,5,6,6],"right_children":[2,4,6,8,10,12,14,-1,-1,-1,-1,-1,-1,-1,-1],"split_conditions":[5E-1,6.7605064E1,-1.1894661E0,-1.1679661E0,1.7050863E1,-2.9936938E0,9.999959E-1,-1.19783044E-1,5.7203006E-2,-4.432986E-3,1.4043076E-1,5.731664E-2,-1.2422804E-1,-7.577151E-2,1.5187576E-1],"split_indices":[187,198,177,159,155,186,134,0,0,0,0,0,0,0,0],"split_type":[0,0,0,0,0,0,0,0,0,0,0,0,0,0,0],"sum_hessian":[4.967907E2,2.7818924E2,2.1860147E2,3.281E1,2.4537924E2,1.7061533E2,4.7986156E1,2.3346521E1,9.46348E0,1.8871853E1,2.2650739E2,1.2634236E0,1.693519E2,3.740149E1,1.058467E1],"tree_param":{"num_deleted":"0","num_feature":"270","num_nodes":"15","size_leaf_vector":"1"}},{"base_weights":[-1.16624705E-1,3.7603283E-1,-5.551919E-1,6.116744E-1,-2.2345386E-1,-1.5720232E-1,-5.842336E-1,1.5174302E-1,-2.675649E-3,9.929972E-2,-1.1865689E-1,-1.08352356E-1,7.978975E-2,1.7272247E-2,-1.1771931E-1],"categories":[],"categories_nodes":[],"categories_segments":[],"categories_sizes":[],"default_left":[0,0,0,0,0,0,0,0,0,0,0,0,0,0,0],"id":14,"left_children":[1,3,5,7,9,11,13,-1,-1,-1,-1,-1,-1,-1,-1],"loss_changes":[9.216289E1,2.8535023E1,2.5152206E0,1.3297749E1,1.5592709E1,3.789524E0,6.648102E-1,0E0,0E0,0E0,0E0,0E0,0E0,0E0,0E0],"parents":[2147483647,0,0,1,1,2,2,3,3,4,4,5,5,6,6],"right_children":[2,4,6,8,10,12,14,-1,-1,-1,-1,-1,-1,-1,-1],"split_conditions":[1.18326355E2,1.367878E2,1.2781003E2,1.3461365E2,-1.5337033E0,5E-1,1.0715764E0,1.5174302E-1,-2.675649E-3,9.929972E-2,-1.1865689E-1,-1.08352356E-1,7.978975E-2,1.7272247E-2,-1.1771931E-1],"split_indices":[76,171,67,9,204,232,66,0,0,0,0,0,0,0,0],"split_type":[0,0,0,0,0,0,0,0,0,0,0,0,0,0,0],"sum_hessian":[4.2458856E2,2.0003027E2,2.2455829E2,1.435747E2,5.6455574E1,1.5707983E1,2.088503E2,1.16058624E2,2.7516075E1,1.9042624E1,3.741295E1,9.301907E0,6.406077E0,1.2285373E0,2.0762177E2],"tree_param":{"num_deleted":"0","num_feature":"270","num_nodes":"15","size_leaf_vector":"1"}},{"base_weights":[2.3112224E-2,-4.095421E-1,4.7890952E-1,-4.8829055E-1,4.7446093E-1,-2.0029838E-1,6.730676E-1,1.7297561E-1,-1.0330255E-1,-9.9780634E-2,1.351219E-1,1.16140045E-1,-1.11859344E-1,4.483707E-2,1.3774087E-1],"categories":[],"categories_nodes":[],"categories_segments":[],"categories_sizes":[],"default_left":[0,0,0,0,0,0,0,0,0,0,0,0,0,0,0],"id":15,"left_children":[1,3,5,7,9,11,13,-1,-1,-1,-1,-1,-1,-1,-1],"loss_changes":[8.38639E1,1.5421513E1,2.7442127E1,8.116932E0,3.9308038E0,1.3447776E1,9.7753143E-1,0E0,0E0,0E0,0E0,0E0,0E0,0E0,0E0],"parents":[2147483647,0,0,1,1,2,2,3,3,4,4,5,5,6,6],"right_children":[2,4,6,8,10,12,14,-1,-1,-1,-1,-1,-1,-1,-1],"split_conditions":[1.6244203E2,1.4797476E2,5E-1,7.809153E0,5E-1,5.574374E1,1.5023259E2,1.7297561E-1,-1.0330255E-1,-9.9780634E-2,1.351219E-1,1.16140045E-1,-1.11859344E-1,4.483707E-2,1.3774087E-1],"split_indices":[67,65,250,220,178,234,50,0,0,0,0,0,0,0,0],"split_type":[0,0,0,0,0,0,0,0,0,0,0,0,0,0,0],"sum_hessian":[4.2327298E2,2.172014E2,2.060716E2,1.998464E2,1.7355003E1,4.5804768E1,1.6026682E2,3.4772592E0,1.9636914E2,2.718727E0,1.4636276E1,1.422998E1,3.157479E1,5.9111967E0,1.5435562E2],"tree_param":{"num_deleted":"0","num_feature":"270","num_nodes":"15","size_leaf_vector":"1"}},{"base_weights":[6.842437E-2,4.8475936E-1,-4.8610747E-1,6.2264048E-2,6.8073463E-1,-5.8791834E-1,-1.4550443E-1,-1.1455083E-1,8.934362E-2,1.3982421E-1,3.4019113E-2,1.4471668E-2,-1.1858374E-1,-7.910663E-2,1.1720603E-1],"categories":[],"categories_nodes":[],"categories_segments":[],"categories_sizes":[],"default_left":[0,0,0,0,0,0,0,0,0,0,0,0,0,0,0],"id":16,"left_children":[1,3,5,7,9,11,13,-1,-1,-1,-1,-1,-1,-1,-1],"loss_changes":[1.0447026E2,2.1350773E1,6.645569E0,2.051235E1,1.5373154E0,5.3520584E-1,8.645086E0,0E0,0E0,0E0,0E0,0E0,0E0,0E0,0E0],"parents":[2147483647,0,0,1,1,2,2,3,3,4,4,5,5,6,6],"right_children":[2,4,6,8,10,12,14,-1,-1,-1,-1,-1,-1,-1,-1],"split_conditions":[5E-1,3.895075E1,-1.1762261E0,9.133968E1,5E-1,-2.9829886E0,9.999956E-1,-1.1455083E-1,8.934362E-2,1.3982421E-1,3.4019113E-2,1.4471668E-2,-1.1858374E-1,-7.910663E-2,1.1720603E-1],"split_indices":[25,47,114,40,88,69,134,0,0,0,0,0,0,0,0],"split_type":[0,0,0,0,0,0,0,0,0,0,0,0,0,0,0],"sum_hessian":[4.5048416E2,2.5737576E2,1.9310841E2,8.1972404E1,1.7540335E2,1.4811017E2,4.499824E1,3.072798E1,5.1244423E1,1.6895087E2,6.4524803E0,1.0119731E0,1.4709819E2,3.3878376E1,1.1119864E1],"tree_param":{"num_deleted":"0","num_feature":"270","num_nodes":"15","size_leaf_vector":"1"}},{"base_weights":[-1.0578492E-1,3.3172303E-1,-5.5463797E-1,5.567131E-1,-2.065749E-1,-2.7656093E-1,-5.734336E-1,1.2667482E-1,-8.900528E-2,8.194556E-2,-1.1017928E-1,-1.0804874E-1,1.1831206E-1,-1.4155564E-2,-1.1541807E-1],"categories":[],"categories_nodes":[],"categories_segments":[],"categories_sizes":[],"default_left":[0,0,0,0,0,0,0,0,0,0,0,0,0,0,0],"id":17,"left_children":[1,3,5,7,9,11,13,-1,-1,-1,-1,-1,-1,-1,-1],"loss_changes":[7.573562E1,2.3786512E1,8.35907E-1,1.0887947E1,1.2606173E1,3.5193553E0,2.850418E-1,0E0,0E0,0E0,0E0,0E0,0E0,0E0,0E0],"parents":[2147483647,0,0,1,1,2,2,3,3,4,4,5,5,6,6],"right_children":[2,4,6,8,10,12,14,-1,-1,-1,-1,-1,-1,-1,-1],"split_conditions":[1.23981316E2,1.367878E2,1.3320076E2,1.2809352E2,-1.5337033E0,5E-1,-3.106006E0,1.2667482E-1,-8.900528E-2,8.194556E-2,-1.1017928E-1,-1.0804874E-1,1.1831206E-1,-1.4155564E-2,-1.1541807E-1],"split_indices":[238,171,238,122,204,214,204,0,0,0,0,0,0,0,0],"split_type":[0,0,0,0,0,0,0,0,0,0,0,0,0,0,0],"sum_hessian":[3.8372797E2,1.9445192E2,1.8927606E2,1.371103E2,5.734161E1,1.2978366E1,1.762977E2,1.2770505E2,9.405261E0,2.0485163E1,3.685645E1,1.0244417E1,2.7339487E0,1.4202838E0,1.7487741E2],"tree_param":{"num_deleted":"0","num_feature":"270","num_nodes":"15","size_leaf_vector":"1"}},{"base_weights":[2.1595037E-2,-3.7980944E-1,4.6091312E-1,-4.6740127E-1,4.7594306E-1,-1.7574109E-1,6.4049715E-1,-1.05071E-1,4.450852E-2,-6.490131E-2,1.3482365E-1,1.23991586E-1,-1.0388961E-1,2.1838939E-2,1.300512E-1],"categories":[],"categories_nodes":[],"categories_segments":[],"categories_sizes":[],"default_left":[0,0,0,0,0,0,0,0,0,0,0,0,0,0,0],"id":18,"left_children":[1,3,5,7,9,11,13,-1,-1,-1,-1,-1,-1,-1,-1],"loss_changes":[6.6808556E1,1.5063818E1,2.0791027E1,7.3189125E0,3.213695E0,1.1419298E1,6.615448E-1,0E0,0E0,0E0,0E0,0E0,0E0,0E0,0E0],"parents":[2147483647,0,0,1,1,2,2,3,3,4,4,5,5,6,6],"right_children":[2,4,6,8,10,12,14,-1,-1,-1,-1,-1,-1,-1,-1],"split_conditions":[1.6278993E2,1.4980132E2,5E-1,1.4671611E2,5E-1,6.467613E1,1.5492123E2,-1.05071E-1,4.450852E-2,-6.490131E-2,1.3482365E-1,1.23991586E-1,-1.0388961E-1,2.1838939E-2,1.300512E-1],"split_indices":[247,254,88,20,7,81,248,0,0,0,0,0,0,0,0],"split_type":[0,0,0,0,0,0,0,0,0,0,0,0,0,0,0],"sum_hessian":[3.7686035E2,1.969985E2,1.7986186E2,1.7911838E2,1.788012E1,3.957688E1,1.4028499E2,1.6545877E2,1.3659605E1,3.4217703E0,1.4458348E1,1.16960945E1,2.7880789E1,2.7500844E0,1.375349E2],"tree_param":{"num_deleted":"0","num_feature":"270","num_nodes":"15","size_leaf_vector":"1"}},{"base_weights":[6.4481825E-2,4.5263925E-1,-4.652157E-1,-2.9404989E-2,6.1723894E-1,-1.16716996E-1,-8.7173395E-2,-1.0675482E-1,8.7844774E-2,1.3144438E-1,3.7828177E-2,-1.1343958E-1,5.7766136E-2],"categories":[],"categories_nodes":[],"categories_segments":[],"categories_sizes":[],"default_left":[0,0,0,0,0,0,0,0,0,0,0,0,0],"id":19,"left_children":[1,3,5,7,9,-1,11,-1,-1,-1,-1,-1,-1],"loss_changes":[8.355813E1,1.8620445E1,7.6425133E0,1.4565675E1,2.8679886E0,0E0,7.775324E0,0E0,0E0,0E0,0E0,0E0,0E0],"parents":[2147483647,0,0,1,1,2,2,3,3,4,4,6,6],"right_children":[2,4,6,8,10,-1,12,-1,-1,-1,-1,-1,-1],"split_conditions":[5E-1,2.8929504E1,-1.1947958E0,1.02433556E2,5E-1,-1.16716996E-1,8.249613E-1,-1.0675482E-1,8.7844774E-2,1.3144438E-1,3.7828177E-2,-1.1343958E-1,5.7766136E-2],"split_indices":[268,264,267,266,124,0,8,0,0,0,0,0,0],"split_type":[0,0,0,0,0,0,0,0,0,0,0,0,0],"sum_hessian":[4.04375E2,2.3345027E2,1.7092473E2,5.9632565E1,1.7381772E2,1.297537E2,4.1171036E1,2.8654114E1,3.0978449E1,1.5848091E2,1.5336798E1,1.7860716E1,2.331032E1],"tree_param":{"num_deleted":"0","num_feature":"270","num_nodes":"13","size_leaf_vector":"1"}},{"base_weights":[-9.949515E-2,3.122578E-1,-5.308349E-1,5.419745E-1,-1.5167312E-1,-2.8294334E-1,-1.1327118E-1,-1.2237982E-1,1.2179698E-1,9.059649E-2,-1.0308888E-1,-1.09756745E-1,1.1651657E-1],"categories":[],"categories_nodes":[],"categories_segments":[],"categories_sizes":[],"default_left":[0,0,0,0,0,0,0,0,0,0,0,0,0],"id":20,"left_children":[1,3,5,7,9,11,-1,-1,-1,-1,-1,-1,-1],"loss_changes":[6.139217E1,1.894562E1,1.3255005E0,9.543095E0,1.3298662E1,5.64544E0,0E0,0E0,0E0,0E0,0E0,0E0,0E0],"parents":[2147483647,0,0,1,1,2,2,3,3,4,4,5,5],"right_children":[2,4,6,8,10,12,-1,-1,-1,-1,-1,-1,-1],"split_conditions":[1.1783231E2,1.292739E2,-2.1654952E0,1.8896626E1,6.403217E1,5E-1,-1.1327118E-1,-1.2237982E-1,1.2179698E-1,9.059649E-2,-1.0308888E-1,-1.09756745E-1,1.1651657E-1],"split_indices":[203,207,240,211,182,250,0,0,0,0,0,0,0],"split_type":[0,0,0,0,0,0,0,0,0,0,0,0,0],"sum_hessian":[3.4373282E2,1.7600047E2,1.6773235E2,1.17601524E2,5.839895E1,2.2146105E1,1.4558624E2,6.008467E0,1.1159306E2,2.1844345E1,3.6554604E1,1.7222336E1,4.923768E0],"tree_param":{"num_deleted":"0","num_feature":"270","num_nodes":"13","size_leaf_vector":"1"}},{"base_weights":[1.9126065E-2,-3.3103946E-1,4.6982992E-1,-4.2707115E-1,3.526362E-1,-1.1542757E-1,6.084046E-1,-1.0082195E-1,2.3234671E-2,-9.5863305E-2,1.08450286E-1,1.126766E-1,-1.0413926E-1,-5.4350164E-2,1.2465663E-1],"categories":[],"categories_nodes":[],"categories_segments":[],"categories_sizes":[],"default_left":[0,0,0,0,0,0,0,0,0,0,0,0,0,0,0],"id":21,"left_children":[1,3,5,7,9,11,13,-1,-1,-1,-1,-1,-1,-1,-1],"loss_changes":[5.277762E1,1.2508747E1,1.1927246E1,6.9848366E0,4.0034714E0,8.224435E0,1.719471E0,0E0,0E0,0E0,0E0,0E0,0E0,0E0,0E0],"parents":[2147483647,0,0,1,1,2,2,3,3,4,4,5,5,6,6],"right_children":[2,4,6,8,10,12,14,-1,-1,-1,-1,-1,-1,-1,-1],"split_conditions":[1.6687354E2,1.4671611E2,5E-1,1.18151596E2,5E-1,6.467613E1,1.6152692E2,-1.0082195E-1,2.3234671E-2,-9.5863305E-2,1.08450286E-1,1.126766E-1,-1.0413926E-1,-5.4350164E-2,1.2465663E-1],"split_indices":[23,20,178,236,70,171,31,0,0,0,0,0,0,0,0],"split_type":[0,0,0,0,0,0,0,0,0,0,0,0,0,0,0],"sum_hessian":[3.3242902E2,1.8722992E2,1.4519911E2,1.6449908E2,2.2730839E1,2.782975E1,1.1736936E2,1.4413153E2,2.0367548E1,3.9355302E0,1.879531E1,1.0257933E1,1.7571815E1,1.664083E0,1.1570528E2],"tree_param":{"num_deleted":"0","num_feature":"270","num_nodes":"15","size_leaf_vector":"1"}},{"base_weights":[6.1316695E-2,4.2565277E-1,-4.4822058E-1,-2.978357E-1,5.1729333E-1,-5.542271E-1,-9.736778E-2,-1.0703963E-1,4.52066E-2,-1.1030256E-2,1.1567544E-1,5.775863E-2,-1.1338689E-1,-7.0495054E-2,1.3147777E-1],"categories":[],"categories_nodes":[],"categories_segments":[],"categories_sizes":[],"default_left":[0,0,0,0,0,0,0,0,0,0,0,0,0,0,0],"id":22,"left_children":[1,3,5,7,9,11,13,-1,-1,-1,-1,-1,-1,-1,-1],"loss_changes":[6.732297E1,1.4167828E1,5.571581E0,3.1547055E0,6.604622E0,1.4057999E0,7.222813E0,0E0,0E0,0E0,0E0,0E0,0E0,0E0,0E0],"parents":[2147483647,0,0,1,1,2,2,3,3,4,4,5,5,6,6],"right_children":[2,4,6,8,10,12,14,-1,-1,-1,-1,-1,-1,-1,-1],"split_conditions":[5E-1,6.8293274E1,-1.1718563E0,-1.1842123E0,1.5751433E1,-2.9671402E0,9.999957E-1,-1.0703963E-1,4.52066E-2,-1.1030256E-2,1.1567544E-1,5.775863E-2,-1.1338689E-1,-7.0495054E-2,1.3147777E-1],"split_indices":[7,0,78,87,3,150,44,0,0,0,0,0,0,0,0],"split_type":[0,0,0,0,0,0,0,0,0,0,0,0,0,0,0],"sum_hessian":[3.6062015E2,2.1036606E2,1.5025409E2,2.3397362E1,1.8696869E2,1.14945E2,3.530909E1,1.6086857E1,7.310506E0,1.8036596E1,1.689321E2,1.3842762E0,1.1356072E2,2.6787813E1,8.521276E0],"tree_param":{"num_deleted":"0","num_feature":"270","num_nodes":"15","size_leaf_vector":"1"}},{"base_weights":[-9.29396E-2,2.870298E-1,-5.224596E-1,5.3701067E-1,-6.97911E-2,-2.793744E-1,-1.11492656E-1,1.190192E-1,-1.0064121E-1,9.591134E-2,-9.823337E-2,1.10594355E-1,-1.0599341E-1],"categories":[],"categories_nodes":[],"categories_segments":[],"categories_sizes":[],"default_left":[0,0,0,0,0,0,0,0,0,0,0,0,0],"id":23,"left_children":[1,3,5,7,9,11,-1,-1,-1,-1,-1,-1,-1],"loss_changes":[5.028548E1,1.4634326E1,1.0742111E0,6.120674E0,1.604594E1,4.506251E0,0E0,0E0,0E0,0E0,0E0,0E0,0E0],"parents":[2147483647,0,0,1,1,2,2,3,3,4,4,5,5],"right_children":[2,4,6,8,10,12,-1,-1,-1,-1,-1,-1,-1],"split_conditions":[1.20582405E2,-1.2909873E0,-2.143704E0,1.4493163E2,1.03081604E2,1.14041756E2,-1.11492656E-1,1.190192E-1,-1.0064121E-1,9.591134E-2,-9.823337E-2,1.10594355E-1,-1.0599341E-1],"split_indices":[23,231,60,238,9,265,0,0,0,0,0,0,0],"split_type":[0,0,0,0,0,0,0,0,0,0,0,0,0],"sum_hessian":[3.0619452E2,1.626447E2,1.435498E2,9.534388E1,6.730082E1,1.9199429E1,1.2435038E2,9.0706764E1,4.6371174E0,2.9154287E1,3.814653E1,4.1635385E0,1.503589E1],"tree_param":{"num_deleted":"0","num_feature":"270","num_nodes":"13","size_leaf_vector":"1"}},{"base_weights":[1.6349936E-2,-3.2493967E-1,4.3979788E-1,-4.25324E-1,3.494758E-1,-8.232481E-2,5.7106525E-1,-1.04086004E-1,4.6415046E-2,-9.824594E-2,1.1410376E-1,1.0423865E-1,-9.5034264E-2,-1.07844835E-2,1.1926172E-1],"categories":[],"categories_nodes":[],"categories_segments":[],"categories_sizes":[],"default_left":[0,0,0,0,0,0,0,0,0,0,0,0,0,0,0],"id":24,"left_children":[1,3,5,7,9,11,13,-1,-1,-1,-1,-1,-1,-1,-1],"loss_changes":[4.240485E1,1.1150017E1,9.020847E0,8.9925785E0,4.2947354E0,6.6914473E0,1.6848412E0,0E0,0E0,0E0,0E0,0E0,0E0,0E0,0E0],"parents":[2147483647,0,0,1,1,2,2,3,3,4,4,5,5,6,6],"right_children":[2,4,6,8,10,12,14,-1,-1,-1,-1,-1,-1,-1,-1],"split_conditions":[1.6690431E2,1.3645706E2,5E-1,1.22157394E2,5E-1,5.5660194E1,1.6230276E2,-1.04086004E-1,4.6415046E-2,-9.824594E-2,1.1410376E-1,1.0423865E-1,-9.5034264E-2,-1.07844835E-2,1.1926172E-1],"split_indices":[176,65,88,263,178,54,157,0,0,0,0,0,0,0,0],"split_type":[0,0,0,0,0,0,0,0,0,0,0,0,0,0,0],"sum_hessian":[2.9143298E2,1.6150012E2,1.2993288E2,1.408974E2,2.0602728E1,2.6178679E1,1.03754196E2,1.23271965E2,1.7625423E1,4.034762E0,1.6567966E1,1.0192911E1,1.5985766E1,3.983853E0,9.977034E1],"tree_param":{"num_deleted":"0","num_feature":"270","num_nodes":"15","size_leaf_vector":"1"}},{"base_weights":[5.778143E-2,4.05776E-1,-4.3489134E-1,-2.67665E-1,4.9979368E-1,-5.522681E-1,-7.8189716E-2,-1.01003885E-1,7.2463594E-2,3.6856376E-2,1.1992257E-1,2.7090529E-2,-1.12154715E-1,-6.374875E-2,1.2355422E-1],"categories":[],"categories_nodes":[],"categories_segments":[],"categories_sizes":[],"default_left":[0,0,0,0,0,0,0,0,0,0,0,0,0,0,0],"id":25,"left_children":[1,3,5,7,9,11,13,-1,-1,-1,-1,-1,-1,-1,-1],"loss_changes":[5.505277E1,1.2043274E1,5.5244255E0,3.725956E0,5.098755E0,6.602478E-1,5.9039574E0,0E0,0E0,0E0,0E0,0E0,0E0,0E0,0E0],"parents":[2147483647,0,0,1,1,2,2,3,3,4,4,5,5,6,6],"right_children":[2,4,6,8,10,12,14,-1,-1,-1,-1,-1,-1,-1,-1],"split_conditions":[5E-1,5.658718E1,-1.1894661E0,1.09474236E2,-1.406857E0,-2.9438484E0,9.999959E-1,-1.01003885E-1,7.2463594E-2,3.6856376E-2,1.1992257E-1,2.7090529E-2,-1.12154715E-1,-6.374875E-2,1.2355422E-1],"split_indices":[187,208,177,108,231,249,134,0,0,0,0,0,0,0,0],"split_type":[0,0,0,0,0,0,0,0,0,0,0,0,0,0,0],"sum_hessian":[3.190765E2,1.8709804E2,1.3197847E2,2.269422E1,1.6440381E2,9.8889496E1,3.308898E1,1.6627827E1,6.0663934E0,4.019626E1,1.2420755E2,1.0257453E0,9.786375E1,2.4992504E1,8.096477E0],"tree_param":{"num_deleted":"0","num_feature":"270","num_nodes":"15","size_leaf_vector":"1"}},{"base_weights":[-8.554169E-2,2.6590565E-1,-5.194323E-1,4.113858E-1,-3.4979576E-1,-1.7339179E-1,-5.381992E-1,-1.339378E-1,9.48235E-2,2.085615E-2,-1.05586946E-1,5.8966506E-2,-9.507925E-2,-3.499498E-3,-1.0859829E-1],"categories":[],"categories_nodes":[],"categories_segments":[],"categories_sizes":[],"default_left":[0,0,0,0,0,0,0,0,0,0,0,0,0,0,0],"id":26,"left_children":[1,3,5,7,9,11,13,-1,-1,-1,-1,-1,-1,-1,-1],"loss_changes":[4.1630283E1,1.3668667E1,6.99646E-1,8.63154E0,2.4330847E0,1.2370187E0,2.7833557E-1,0E0,0E0,0E0,0E0,0E0,0E0,0E0,0E0],"parents":[2147483647,0,0,1,1,2,2,3,3,4,4,5,5,6,6],"right_children":[2,4,6,8,10,12,14,-1,-1,-1,-1,-1,-1,-1,-1],"split_conditions":[1.2501995E2,1.5215967E2,1.2781003E2,1.7291613E1,6.340536E1,-1.9891605E0,-3.106006E0,-1.339378E-1,9.48235E-2,2.085615E-2,-1.05586946E-1,5.8966506E-2,-9.507925E-2,-3.499498E-3,-1.0859829E-1],"split_indices":[166,262,157,220,191,105,114,0,0,0,0,0,0,0,0],"split_type":[0,0,0,0,0,0,0,0,0,0,0,0,0,0,0],"sum_hessian":[2.710981E2,1.4999265E2,1.2110548E2,1.2159385E2,2.8398796E1,6.7567964E0,1.1434868E2,6.1381307E0,1.1545572E2,8.118735E0,2.028006E1,2.6586316E0,4.0981646E0,1.0852293E0,1.1326345E2],"tree_param":{"num_deleted":"0","num_feature":"270","num_nodes":"15","size_leaf_vector":"1"}},{"base_weights":[1.19398665E-2,-3.303252E-1,4.025461E-1,-4.1663975E-1,3.947792E-1,-1.6089773E-1,5.619373E-1,-1.02066696E-1,-4.9742623E-3,-5.4870486E-2,1.13626145E-1,1.0418671E-1,-1.0309442E-1,1.1629651E-2,1.1442423E-1],"categories":[],"categories_nodes":[],"categories_segments":[],"categories_sizes":[],"default_left":[0,0,0,0,0,0,0,0,0,0,0,0,0,0,0],"id":27,"left_children":[1,3,5,7,9,11,13,-1,-1,-1,-1,-1,-1,-1,-1],"loss_changes":[3.4287434E1,8.720864E0,1.0845976E1,4.4895287E0,1.902307E0,6.840982E0,4.4682693E-1,0E0,0E0,0E0,0E0,0E0,0E0,0E0,0E0],"parents":[2147483647,0,0,1,1,2,2,3,3,4,4,5,5,6,6],"right_children":[2,4,6,8,10,12,14,-1,-1,-1,-1,-1,-1,-1,-1],"split_conditions":[1.6278993E2,1.4980132E2,5E-1,1.0265304E2,5E-1,7.001542E1,1.5289906E2,-1.02066696E-1,-4.9742623E-3,-5.4870486E-2,1.13626145E-1,1.0418671E-1,-1.0309442E-1,1.1629651E-2,1.1442423E-1],"split_indices":[247,254,70,2,7,63,257,0,0,0,0,0,0,0,0],"split_type":[0,0,0,0,0,0,0,0,0,0,0,0,0,0,0],"sum_hessian":[2.5447342E2,1.3571167E2,1.1876176E2,1.2165552E2,1.4056153E1,2.6185875E1,9.2575874E1,9.793189E1,2.3723625E1,2.7723463E0,1.1283807E1,8.798179E0,1.7387697E1,1.9672469E0,9.060863E1],"tree_param":{"num_deleted":"0","num_feature":"270","num_nodes":"15","size_leaf_vector":"1"}},{"base_weights":[5.6637783E-2,3.8437617E-1,-4.2478663E-1,-4.9112644E-2,5.3891504E-1,-1.1014769E-1,-7.489974E-2,-1.07741036E-1,6.737739E-2,1.1536582E-1,3.1162312E-2,-6.321298E-2,1.0536822E-1],"categories":[],"categories_nodes":[],"categories_segments":[],"categories_sizes":[],"default_left":[0,0,0,0,0,0,0,0,0,0,0,0,0],"id":28,"left_children":[1,3,5,7,9,-1,11,-1,-1,-1,-1,-1,-1],"loss_changes":[4.5038857E1,1.1397705E1,5.056345E0,8.785186E0,1.7288971E0,0E0,4.77774E0,0E0,0E0,0E0,0E0,0E0,0E0],"parents":[2147483647,0,0,1,1,2,2,3,3,4,4,6,6],"right_children":[2,4,6,8,10,-1,12,-1,-1,-1,-1,-1,-1],"split_conditions":[5E-1,2.8929504E1,-1.1947958E0,-1.2984732E0,5E-1,-1.1014769E-1,9.999959E-1,-1.07741036E-1,6.737739E-2,1.1536582E-1,3.1162312E-2,-6.321298E-2,1.0536822E-1],"split_indices":[268,264,267,69,124,0,224,0,0,0,0,0,0],"split_type":[0,0,0,0,0,0,0,0,0,0,0,0,0],"sum_hessian":[2.8341638E2,1.6874307E2,1.1467332E2,4.4526447E1,1.2421662E2,8.3897835E1,3.0775484E1,1.9454819E1,2.507163E1,1.1257035E2,1.1646267E1,2.230918E1,8.466304E0],"tree_param":{"num_deleted":"0","num_feature":"270","num_nodes":"13","size_leaf_vector":"1"}},{"base_weights":[-7.891959E-2,2.5660342E-1,-5.0526506E-1,4.8330015E-1,-6.2031265E-2,-2.7082735E-1,-1.08109966E-1,1.07586384E-1,-9.3052916E-2,8.1022136E-2,-9.54319E-2,9.619312E-2,-1.011873E-1],"categories":[],"categories_nodes":[],"categories_segments":[],"categories_sizes":[],"default_left":[0,0,0,0,0,0,0,0,0,0,0,0,0],"id":29,"left_children":[1,3,5,7,9,11,-1,-1,-1,-1,-1,-1,-1],"loss_changes":[3.48571E1,9.891043E0,7.407837E-1,4.3897896E0,1.1370453E1,3.077476E0,0E0,0E0,0E0,0E0,0E0,0E0,0E0],"parents":[2147483647,0,0,1,1,2,2,3,3,4,4,5,5],"right_children":[2,4,6,8,10,12,-1,-1,-1,-1,-1,-1,-1],"split_conditions":[1.20582405E2,-1.3041519E0,-2.143704E0,1.3320076E2,1.0597127E2,1.14041756E2,-1.08109966E-1,1.07586384E-1,-9.3052916E-2,8.1022136E-2,-9.54319E-2,9.619312E-2,-1.011873E-1],"split_indices":[23,249,60,238,18,265,0,0,0,0,0,0,0],"split_type":[0,0,0,0,0,0,0,0,0,0,0,0,0],"sum_hessian":[2.4176657E2,1.3551659E2,1.0624998E2,7.8879776E1,5.663681E1,1.5034417E1,9.121556E1,7.499349E1,3.8862839E0,2.6660265E1,2.9976545E1,3.3325222E0,1.1701895E1],"tree_param":{"num_deleted":"0","num_feature":"270","num_nodes":"13","size_leaf_vector":"1"}},{"base_weights":[1.0274111E-2,-4.2696208E-1,3.0167747E-1,1.519739E-1,-5.04769E-1,-1.1968884E-1,5.5421746E-1,-8.6440735E-2,1.0079836E-1,5.368816E-3,-1.0363159E-1,-6.464304E-2,9.744581E-2,5.2305084E-2,1.1505264E-1],"categories":[],"categories_nodes":[],"categories_segments":[],"categories_sizes":[],"default_left":[0,0,0,0,0,0,0,0,0,0,0,0,0,0,0],"id":30,"left_children":[1,3,5,7,9,11,13,-1,-1,-1,-1,-1,-1,-1,-1],"loss_changes":[2.8485516E1,4.1047287E0,1.4340139E1,2.5544689E0,5.7662964E-1,6.4682007E0,3.6728668E-1,0E0,0E0,0E0,0E0,0E0,0E0,0E0,0E0],"parents":[2147483647,0,0,1,1,2,2,3,3,4,4,5,5,6,6],"right_children":[2,4,6,8,10,12,14,-1,-1,-1,-1,-1,-1,-1,-1],"split_conditions":[5E-1,3.2035225E1,1.5348106E2,1.5542412E2,3.045573E1,1.26686295E2,1.5706696E1,-8.6440735E-2,1.0079836E-1,5.368816E-3,-1.0363159E-1,-6.464304E-2,9.744581E-2,5.2305084E-2,1.1505264E-1],"split_indices":[178,190,5,58,226,110,219,0,0,0,0,0,0,0,0],"split_type":[0,0,0,0,0,0,0,0,0,0,0,0,0,0,0],"sum_hessian":[2.2155902E2,8.842161E1,1.331374E2,1.0362727E1,7.805888E1,5.008912E1,8.3048294E1,3.8108275E0,6.5519E0,1.8929613E0,7.616592E1,3.786033E1,1.2228789E1,6.471606E0,7.657669E1],"tree_param":{"num_deleted":"0","num_feature":"270","num_nodes":"15","size_leaf_vector":"1"}},{"base_weights":[5.3762145E-2,3.6743847E-1,-4.13237E-1,-1.665247E-2,5.355727E-1,-5.324673E-1,-1.18728764E-1,9.945339E-2,-9.466461E-2,-8.148772E-2,1.11047044E-1,-2.0466577E-2,-1.0752614E-1,5.8416136E-2,-7.7877395E-2],"categories":[],"categories_nodes":[],"categories_segments":[],"categories_sizes":[],"default_left":[0,0,0,0,0,0,0,0,0,0,0,0,0,0,0],"id":31,"left_children":[1,3,5,7,9,11,13,-1,-1,-1,-1,-1,-1,-1,-1],"loss_changes":[3.675301E1,9.69545E0,3.4785786E0,1.1181041E1,2.1612034E0,1.0380173E-1,3.4887586E0,0E0,0E0,0E0,0E0,0E0,0E0,0E0,0E0],"parents":[2147483647,0,0,1,1,2,2,3,3,4,4,5,5,6,6],"right_children":[2,4,6,8,10,12,14,-1,-1,-1,-1,-1,-1,-1,-1],"split_conditions":[5E-1,-1.2809303E0,-1.2211019E0,-2.3667593E0,7.407361E-1,-2.7983167E0,2.797119E1,9.945339E-2,-9.466461E-2,-8.148772E-2,1.11047044E-1,-2.0466577E-2,-1.0752614E-1,5.8416136E-2,-7.7877395E-2],"split_indices":[25,60,24,60,8,222,30,0,0,0,0,0,0,0,0],"split_type":[0,0,0,0,0,0,0,0,0,0,0,0,0,0,0],"sum_hessian":[2.4886024E2,1.4899544E2,9.986481E1,4.563848E1,1.0335696E2,7.051083E1,2.9353977E1,2.1431456E1,2.4207026E1,1.7082405E0,1.0164872E2,1.0833278E0,6.9427505E1,1.162707E1,1.7726908E1],"tree_param":{"num_deleted":"0","num_feature":"270","num_nodes":"15","size_leaf_vector":"1"}},{"base_weights":[-7.349305E-2,2.4861062E-1,-4.9423718E-1,-5.7645667E-1,3.3738178E-1,-2.4333882E-1,-1.0665244E-1,-1.257948E-1,-8.20811E-3,1.0002456E-1,-2.2948088E-2,-9.858733E-2,8.912807E-2],"categories":[],"categories_nodes":[],"categories_segments":[],"categories_sizes":[],"default_left":[0,0,0,0,0,0,0,0,0,0,0,0,0],"id":32,"left_children":[1,3,5,7,9,11,-1,-1,-1,-1,-1,-1,-1],"loss_changes":[2.9110277E1,9.116312E0,7.816105E-1,3.1729507E-1,8.195972E0,2.6905556E0,0E0,0E0,0E0,0E0,0E0,0E0,0E0],"parents":[2147483647,0,0,1,1,2,2,3,3,4,4,5,5],"right_children":[2,4,6,8,10,12,-1,-1,-1,-1,-1,-1,-1],"split_conditions":[1.1783231E2,1.9806292E1,-2.1654952E0,9.999967E-1,-1.8355808E-1,5E-1,-1.0665244E-1,-1.257948E-1,-8.20811E-3,1.0002456E-1,-2.2948088E-2,-9.858733E-2,8.912807E-2],"split_indices":[203,211,240,242,204,223,0,0,0,0,0,0,0],"split_type":[0,0,0,0,0,0,0,0,0,0,0,0,0],"sum_hessian":[2.1289252E2,1.2081265E2,9.2079865E1,1.1202193E1,1.0961046E2,1.3368298E1,7.871157E1,1.0042425E1,1.1597686E0,8.0520874E1,2.9089588E1,1.0022109E1,3.3461883E0],"tree_param":{"num_deleted":"0","num_feature":"270","num_nodes":"13","size_leaf_vector":"1"}},{"base_weights":[8.33211E-3,-4.1523916E-1,2.9078016E-1,9.134947E-2,-4.9758288E-1,-1.1219259E-1,5.212255E-1,-9.382928E-2,1.0022036E-1,-1.03101216E-1,4.3880115E-3,-7.6387085E-2,8.3195806E-2,1.4743576E-2,1.0872457E-1],"categories":[],"categories_nodes":[],"categories_segments":[],"categories_sizes":[],"default_left":[0,0,0,0,0,0,0,0,0,0,0,0,0,0,0],"id":33,"left_children":[1,3,5,7,9,11,13,-1,-1,-1,-1,-1,-1,-1,-1],"loss_changes":[2.3280151E1,3.2931385E0,1.0897991E1,2.9291716E0,6.36343E-1,6.326297E0,7.060013E-1,0E0,0E0,0E0,0E0,0E0,0E0,0E0,0E0],"parents":[2147483647,0,0,1,1,2,2,3,3,4,4,5,5,6,6],"right_children":[2,4,6,8,10,12,14,-1,-1,-1,-1,-1,-1,-1,-1],"split_conditions":[5E-1,3.0694677E1,1.4977187E2,1.5228387E2,1.7721387E2,1.0265304E2,8.400969E0,-9.382928E-2,1.0022036E-1,-1.03101216E-1,4.3880115E-3,-7.6387085E-2,8.3195806E-2,1.4743576E-2,1.0872457E-1],"split_indices":[268,244,14,148,248,2,21,0,0,0,0,0,0,0,0],"split_type":[0,0,0,0,0,0,0,0,0,0,0,0,0,0,0],"sum_hessian":[1.9258087E2,7.685526E1,1.1572561E2,1.0730509E1,6.6124756E1,4.22891E1,7.343651E1,4.4704614E0,6.2600474E0,6.3927044E1,2.1977072E0,2.8176126E1,1.4112973E1,3.7047899E0,6.973172E1],"tree_param":{"num_deleted":"0","num_feature":"270","num_nodes":"15","size_leaf_vector":"1"}},{"base_weights":[5.035118E-2,3.5705408E-1,-3.970906E-1,8.559543E-3,5.3131384E-1,-1.0644124E-1,-6.962547E-2,-9.459364E-2,7.019835E-2,-3.984019E-2,1.0908145E-1,-6.34797E-2,1.2330087E-1],"categories":[],"categories_nodes":[],"categories_segments":[],"categories_sizes":[],"default_left":[0,0,0,0,0,0,0,0,0,0,0,0,0],"id":34,"left_children":[1,3,5,7,9,-1,11,-1,-1,-1,-1,-1,-1],"loss_changes":[3.0196573E1,7.9184685E0,3.9247704E0,7.504815E0,1.0039215E0,0E0,4.8376136E0,0E0,0E0,0E0,0E0,0E0,0E0],"parents":[2147483647,0,0,1,1,2,2,3,3,4,4,6,6],"right_children":[2,4,6,8,10,-1,12,-1,-1,-1,-1,-1,-1],"split_conditions":[5E-1,3.9607933E1,-1.1842123E0,9.906019E1,2.7072636E1,-1.0644124E-1,9.999958E-1,-9.459364E-2,7.019835E-2,-3.984019E-2,1.0908145E-1,-6.34797E-2,1.2330087E-1],"split_indices":[169,191,87,166,163,0,53,0,0,0,0,0,0],"split_type":[0,0,0,0,0,0,0,0,0,0,0,0,0],"sum_hessian":[2.1800763E2,1.2946602E2,8.854161E1,4.3507122E1,8.595889E1,6.2236816E1,2.6304792E1,1.7922842E1,2.558428E1,1.3783655E0,8.458053E1,1.9720718E1,6.584075E0],"tree_param":{"num_deleted":"0","num_feature":"270","num_nodes":"13","size_leaf_vector":"1"}},{"base_weights":[-6.658869E-2,2.3459747E-1,-4.9123648E-1,-5.5264246E-1,3.13132E-1,-2.5348675E-1,-1.05958454E-1,-1.2050231E-1,-3.6422513E-2,9.875301E-2,-2.0416223E-2,-9.641581E-2,8.613231E-2],"categories":[],"categories_nodes":[],"categories_segments":[],"categories_sizes":[],"default_left":[0,0,0,0,0,0,0,0,0,0,0,0,0],"id":35,"left_children":[1,3,5,7,9,11,-1,-1,-1,-1,-1,-1,-1],"loss_changes":[2.4393534E1,7.0810466E0,5.907097E-1,8.4239244E-2,7.71828E0,2.233485E0,0E0,0E0,0E0,0E0,0E0,0E0,0E0],"parents":[2147483647,0,0,1,1,2,2,3,3,4,4,5,5],"right_children":[2,4,6,8,10,12,-1,-1,-1,-1,-1,-1,-1],"split_conditions":[1.2138429E2,1.9667679E1,-2.0295494E0,1.9491999E1,-6.4594954E-1,5E-1,-1.05958454E-1,-1.2050231E-1,-3.6422513E-2,9.875301E-2,-2.0416223E-2,-9.641581E-2,8.613231E-2],"split_indices":[5,31,24,4,267,34,0,0,0,0,0,0,0],"split_type":[0,0,0,0,0,0,0,0,0,0,0,0,0],"sum_hessian":[1.8882536E2,1.10733765E2,7.8091606E1,9.497064E0,1.012367E2,1.195389E1,6.613771E1,7.8186784E0,1.6783855E0,7.041457E1,3.0822128E1,9.181472E0,2.7724173E0],"tree_param":{"num_deleted":"0","num_feature":"270","num_nodes":"13","size_leaf_vector":"1"}},{"base_weights":[7.6584406E-3,-4.1001603E-1,2.7387396E-1,8.190683E-2,-5.03172E-1,-1.1660312E-1,5.0060403E-1,-8.759651E-2,9.837443E-2,-4.064634E-3,-1.03825115E-1,-6.9009244E-2,1.13921516E-1,-1.0389831E-4,1.0608691E-1],"categories":[],"categories_nodes":[],"categories_segments":[],"categories_sizes":[],"default_left":[0,0,0,0,0,0,0,0,0,0,0,0,0,0,0],"id":36,"left_children":[1,3,5,7,9,11,13,-1,-1,-1,-1,-1,-1,-1,-1],"loss_changes":[1.8878681E1,3.070241E0,9.237144E0,2.6418374E0,4.1863155E-1,6.2939496E0,9.8360443E-1,0E0,0E0,0E0,0E0,0E0,0E0,0E0,0E0],"parents":[2147483647,0,0,1,1,2,2,3,3,4,4,5,5,6,6],"right_children":[2,4,6,8,10,12,14,-1,-1,-1,-1,-1,-1,-1,-1],"split_conditions":[5E-1,4.8237812E1,1.4967714E2,1.4065958E2,4.3279408E1,1.255441E2,8.4694E0,-8.759651E-2,9.837443E-2,-4.064634E-3,-1.03825115E-1,-6.9009244E-2,1.13921516E-1,-1.0389831E-4,1.0608691E-1],"split_indices":[88,81,176,58,27,200,66,0,0,0,0,0,0,0,0],"split_type":[0,0,0,0,0,0,0,0,0,0,0,0,0,0,0],"sum_hessian":[1.677755E2,6.509912E1,1.0267638E2,1.0384276E1,5.4714848E1,3.789644E1,6.477994E1,4.5482116E0,5.836065E0,1.8227147E0,5.289213E1,2.8804457E1,9.091981E0,3.6947238E0,6.1085217E1],"tree_param":{"num_deleted":"0","num_feature":"270","num_nodes":"15","size_leaf_vector":"1"}},{"base_weights":[4.7862127E-2,3.397942E-1,-3.9453202E-1,3.4721426E-3,5.0049365E-1,-5.108328E-1,-1.046728E-1,9.879967E-2,-7.059811E-2,-8.1458285E-2,1.05730094E-1,1.805298E-2,-1.04890466E-1,-6.2207736E-2,1.03102244E-1],"categories":[],"categories_nodes":[],"categories_segments":[],"categories_sizes":[],"default_left":[0,0,0,0,0,0,0,0,0,0,0,0,0,0,0],"id":37,"left_children":[1,3,5,7,9,11,13,-1,-1,-1,-1,-1,-1,-1,-1],"loss_changes":[2.4956617E1,6.2854395E0,2.537961E0,6.9270563E0,2.2271633E0,4.9435806E-1,3.1384883E0,0E0,0E0,0E0,0E0,0E0,0E0,0E0,0E0],"parents":[2147483647,0,0,1,1,2,2,3,3,4,4,5,5,6,6],"right_children":[2,4,6,8,10,12,14,-1,-1,-1,-1,-1,-1,-1,-1],"split_conditions":[5E-1,-1.2359567E0,-1.1718563E0,-2.7183626E0,7.407361E-1,-2.988998E0,9.999957E-1,9.879967E-2,-7.059811E-2,-8.1458285E-2,1.05730094E-1,1.805298E-2,-1.04890466E-1,-6.2207736E-2,1.03102244E-1],"split_indices":[7,87,78,87,8,141,44,0,0,0,0,0,0,0,0],"split_type":[0,0,0,0,0,0,0,0,0,0,0,0,0,0,0],"sum_hessian":[1.9120087E2,1.1532851E2,7.587236E1,3.7618896E1,7.770962E1,5.3602848E1,2.2269514E1,1.566986E1,2.1949036E1,1.9327297E0,7.5776886E1,1.0629314E0,5.2539913E1,1.7083473E1,5.1860423E0],"tree_param":{"num_deleted":"0","num_feature":"270","num_nodes":"15","size_leaf_vector":"1"}},{"base_weights":[-6.2375966E-2,2.214364E-1,-4.8590225E-1,-5.504869E-1,2.9994395E-1,-1.5789679E-1,-5.1193136E-1,-1.9296836E-2,-1.1851423E-1,9.381481E-2,-1.6857428E-2,-8.364683E-2,7.2265945E-2,-1.0355743E-1,-1.9205563E-2],"categories":[],"categories_nodes":[],"categories_segments":[],"categories_sizes":[],"default_left":[0,0,0,0,0,0,0,0,0,0,0,0,0,0,0],"id":38,"left_children":[1,3,5,7,9,11,13,-1,-1,-1,-1,-1,-1,-1,-1],"loss_changes":[2.0325695E1,6.310082E0,4.9804115E-1,1.2841296E-1,6.0627203E0,1.0204092E0,1.0217857E-1,0E0,0E0,0E0,0E0,0E0,0E0,0E0,0E0],"parents":[2147483647,0,0,1,1,2,2,3,3,4,4,5,5,6,6],"right_children":[2,4,6,8,10,12,14,-1,-1,-1,-1,-1,-1,-1,-1],"split_conditions":[1.24629005E2,1.6546112E1,1.3282735E2,2.0980442E1,-4.8394012E-1,5E-1,1.785384E2,-1.9296836E-2,-1.1851423E-1,9.381481E-2,-1.6857428E-2,-8.364683E-2,7.2265945E-2,-1.0355743E-1,-1.9205563E-2],"split_indices":[256,256,256,102,258,196,27,0,0,0,0,0,0,0,0],"split_type":[0,0,0,0,0,0,0,0,0,0,0,0,0,0,0],"sum_hessian":[1.6720105E2,1.0039905E2,6.6801994E1,8.713353E0,9.168569E1,5.4308867E0,6.137111E1,1.018497E0,7.6948557E0,6.3509422E1,2.8176273E1,3.7467782E0,1.6841085E0,6.027745E1,1.0936587E0],"tree_param":{"num_deleted":"0","num_feature":"270","num_nodes":"15","size_leaf_vector":"1"}},{"base_weights":[5.949777E-3,-3.971304E-1,2.6548332E-1,-5.110204E-1,-1.9475212E-2,-8.603542E-2,5.0386506E-1,-1.0324853E-1,-2.9476259E-2,8.8865444E-2,-7.687896E-2,-6.1207283E-2,1.0445034E-1,1.6816651E-2,1.0537046E-1],"categories":[],"categories_nodes":[],"categories_segments":[],"categories_sizes":[],"default_left":[0,0,0,0,0,0,0,0,0,0,0,0,0,0,0],"id":39,"left_children":[1,3,5,7,9,11,13,-1,-1,-1,-1,-1,-1,-1,-1],"loss_changes":[1.5423371E1,2.4740543E0,7.5575085E0,8.102417E-3,2.6115243E0,5.1235156E0,4.7273922E-1,0E0,0E0,0E0,0E0,0E0,0E0,0E0,0E0],"parents":[2147483647,0,0,1,1,2,2,3,3,4,4,5,5,6,6],"right_children":[2,4,6,8,10,12,14,-1,-1,-1,-1,-1,-1,-1,-1],"split_conditions":[5E-1,1.6720882E2,1.5373294E2,1.7785751E2,6.467613E1,1.2693271E2,8.400969E0,-1.0324853E-1,-2.9476259E-2,8.8865444E-2,-7.687896E-2,-6.1207283E-2,1.0445034E-1,1.6816651E-2,1.0537046E-1],"split_indices":[268,238,95,82,261,191,21,0,0,0,0,0,0,0,0],"split_type":[0,0,0,0,0,0,0,0,0,0,0,0,0,0,0],"sum_hessian":[1.4542506E2,5.675265E1,8.867242E1,4.3331863E1,1.342079E1,3.609123E1,5.2581192E1,4.230467E1,1.0271949E0,5.813894E0,7.6068964E0,2.6869972E1,9.221254E0,2.9716775E0,4.9609512E1],"tree_param":{"num_deleted":"0","num_feature":"270","num_nodes":"15","size_leaf_vector":"1"}},{"base_weights":[4.533292E-2,3.3460635E-1,-3.8269952E-1,-2.6855734E-1,4.2766717E-1,-1.03387795E-1,-8.922432E-2,-8.436073E-2,5.5474777E-2,2.2493197E-2,1.0481163E-1,-6.684555E-2,9.628029E-2],"categories":[],"categories_nodes":[],"categories_segments":[],"categories_sizes":[],"default_left":[0,0,0,0,0,0,0,0,0,0,0,0,0],"id":40,"left_children":[1,3,5,7,9,-1,11,-1,-1,-1,-1,-1,-1],"loss_changes":[2.0951365E1,5.777788E0,2.6441545E0,1.2965853E0,2.6083012E0,0E0,3.3262348E0,0E0,0E0,0E0,0E0,0E0,0E0],"parents":[2147483647,0,0,1,1,2,2,3,3,4,4,6,6],"right_children":[2,4,6,8,10,-1,12,-1,-1,-1,-1,-1,-1],"split_conditions":[5E-1,6.0012867E1,-1.1894661E0,1.4517175E2,7.035336E1,-1.03387795E-1,9.999958E-1,-8.436073E-2,5.5474777E-2,2.2493197E-2,1.0481163E-1,-6.684555E-2,9.628029E-2],"split_indices":[259,253,177,108,256,0,143,0,0,0,0,0,0],"split_type":[0,0,0,0,0,0,0,0,0,0,0,0,0],"sum_hessian":[1.6717621E2,9.988802E1,6.7288185E1,1.3099459E1,8.678857E1,4.564714E1,2.1641045E1,1.0405843E1,2.6936164E0,2.0832499E1,6.595607E1,1.5430218E1,6.210827E0],"tree_param":{"num_deleted":"0","num_feature":"270","num_nodes":"13","size_leaf_vector":"1"}},{"base_weights":[-5.6913443E-2,1.993161E-1,-5.008668E-1,3.147882E-1,-3.045767E-1,-8.911768E-3,-5.086267E-1,9.610913E-2,-4.47877E-3,1.683285E-2,-9.0528466E-2,-3.8979933E-2,-1.0352109E-1],"categories":[],"categories_nodes":[],"categories_segments":[],"categories_sizes":[],"default_left":[0,0,0,0,0,0,0,0,0,0,0,0,0],"id":41,"left_children":[1,3,5,7,9,-1,11,-1,-1,-1,-1,-1,-1],"loss_changes":[1.7079157E1,5.6442432E0,1.7175674E-1,4.3741455E0,1.0906315E0,0E0,5.092907E-2,0E0,0E0,0E0,0E0,0E0,0E0],"parents":[2147483647,0,0,1,1,2,2,3,3,4,4,6,6],"right_children":[2,4,6,8,10,-1,12,-1,-1,-1,-1,-1,-1],"split_conditions":[1.3016563E2,1.5215967E2,-3.0905867E0,1.32331E2,-1.6282281E0,-8.911768E-3,1.3320557E2,9.610913E-2,-4.47877E-3,1.683285E-2,-9.0528466E-2,-3.8979933E-2,-1.0352109E-1],"split_indices":[76,262,24,27,24,0,76,0,0,0,0,0,0],"split_type":[0,0,0,0,0,0,0,0,0,0,0,0,0],"sum_hessian":[1.482636E2,9.435643E1,5.3907173E1,7.707029E1,1.728614E1,1.0141484E0,5.2893024E1,5.1384617E1,2.5685675E1,4.88702E0,1.239912E1,2.103439E0,5.0789585E1],"tree_param":{"num_deleted":"0","num_feature":"270","num_nodes":"13","size_leaf_vector":"1"}},{"base_weights":[2.8557018E-3,-4.0004817E-1,2.5004366E-1,7.073014E-2,-4.9106345E-1,-9.847809E-2,4.7497162E-1,-8.13891E-2,9.0446234E-2,-3.2987313E-3,-1.01604395E-1,-6.8404056E-2,9.09135E-2,-2.4491781E-3,1.0164974E-1],"categories":[],"categories_nodes":[],"categories_segments":[],"categories_sizes":[],"default_left":[0,0,0,0,0,0,0,0,0,0,0,0,0,0,0],"id":42,"left_children":[1,3,5,7,9,11,13,-1,-1,-1,-1,-1,-1,-1,-1],"loss_changes":[1.277892E1,2.1253424E0,6.2801986E0,1.7838085E0,3.216896E-1,4.467875E0,7.925377E-1,0E0,0E0,0E0,0E0,0E0,0E0,0E0,0E0],"parents":[2147483647,0,0,1,1,2,2,3,3,4,4,5,5,6,6],"right_children":[2,4,6,8,10,12,14,-1,-1,-1,-1,-1,-1,-1,-1],"split_conditions":[5E-1,4.8237812E1,1.4967714E2,1.4065958E2,4.3279408E1,1.5040723E2,8.4694E0,-8.13891E-2,9.0446234E-2,-3.2987313E-3,-1.01604395E-1,-6.8404056E-2,9.09135E-2,-2.4491781E-3,1.0164974E-1],"split_indices":[88,81,176,58,27,171,66,0,0,0,0,0,0,0,0],"split_type":[0,0,0,0,0,0,0,0,0,0,0,0,0,0,0],"sum_hessian":[1.26307076E2,4.779129E1,7.8515785E1,7.7786984E0,4.0012592E1,3.1017271E1,4.7498512E1,3.4243677E0,4.3543305E0,1.4485527E0,3.8564037E1,2.1799217E1,9.218055E0,3.0771537E0,4.442136E1],"tree_param":{"num_deleted":"0","num_feature":"270","num_nodes":"15","size_leaf_vector":"1"}},{"base_weights":[4.3584958E-2,3.1928337E-1,-3.728363E-1,-2.0212156E-3,4.8922488E-1,-5.0897384E-1,-8.4340885E-2,-8.7158635E-2,6.371678E-2,1.049384E-1,1.5685683E-2,-1.03436366E-1,-1.8754253E-2,-5.9602506E-2,1.0670938E-1],"categories":[],"categories_nodes":[],"categories_segments":[],"categories_sizes":[],"default_left":[0,0,0,0,0,0,0,0,0,0,0,0,0,0,0],"id":43,"left_children":[1,3,5,7,9,11,13,-1,-1,-1,-1,-1,-1,-1,-1],"loss_changes":[1.711899E1,4.8950195E0,2.2917871E0,4.5893717E0,8.130331E-1,8.846378E-2,2.8334084E0,0E0,0E0,0E0,0E0,0E0,0E0,0E0,0E0],"parents":[2147483647,0,0,1,1,2,2,3,3,4,4,5,5,6,6],"right_children":[2,4,6,8,10,12,14,-1,-1,-1,-1,-1,-1,-1,-1],"split_conditions":[5E-1,3.9607933E1,-1.1842123E0,9.906019E1,5E-1,-1.1161922E0,9.999958E-1,-8.7158635E-2,6.371678E-2,1.049384E-1,1.5685683E-2,-1.03436366E-1,-1.8754253E-2,-5.9602506E-2,1.0670938E-1],"split_indices":[187,191,87,166,268,195,53,0,0,0,0,0,0,0,0],"split_type":[0,0,0,0,0,0,0,0,0,0,0,0,0,0,0],"sum_hessian":[1.4707457E2,8.862935E1,5.844522E1,3.1002235E1,5.7627113E1,3.9188435E1,1.9256788E1,1.3023046E1,1.7979189E1,5.279194E1,4.8351774E0,3.8187897E1,1.0005383E0,1.4693369E1,4.563419E0],"tree_param":{"num_deleted":"0","num_feature":"270","num_nodes":"15","size_leaf_vector":"1"}},{"base_weights":[-5.123398E-2,2.0517197E-1,-4.7151563E-1,-4.4371873E-1,3.0225018E-1,-1.9786724E-1,-1.0307621E-1,-1.158111E-1,-6.388647E-3,1.02079146E-1,6.8300883E-3,-8.8286944E-2,7.246269E-2],"categories":[],"categories_nodes":[],"categories_segments":[],"categories_sizes":[],"default_left":[0,0,0,0,0,0,0,0,0,0,0,0,0],"id":44,"left_children":[1,3,5,7,9,11,-1,-1,-1,-1,-1,-1,-1],"loss_changes":[1.4436041E1,5.384017E0,5.068836E-1,6.0849786E-1,4.061263E0,1.3375213E0,0E0,0E0,0E0,0E0,0E0,0E0,0E0],"parents":[2147483647,0,0,1,1,2,2,3,3,4,4,5,5],"right_children":[2,4,6,8,10,12,-1,-1,-1,-1,-1,-1,-1],"split_conditions":[1.1783231E2,2.3225332E1,-2.1654952E0,3.8639587E1,5.5908295E1,5E-1,-1.0307621E-1,-1.158111E-1,-6.388647E-3,1.02079146E-1,6.8300883E-3,-8.8286944E-2,7.246269E-2],"split_indices":[203,166,240,266,209,223,0,0,0,0,0,0,0],"split_type":[0,0,0,0,0,0,0,0,0,0,0,0,0],"sum_hessian":[1.3206364E2,8.234085E1,4.9722786E1,1.0250914E1,7.208994E1,7.630666E0,4.209212E1,7.4094396E0,2.8414738E0,4.0073887E1,3.2016052E1,5.466013E0,2.164653E0],"tree_param":{"num_deleted":"0","num_feature":"270","num_nodes":"13","size_leaf_vector":"1"}},{"base_weights":[3.519531E-4,-3.9165413E-1,2.3380679E-1,7.184823E-2,-4.8460886E-1,-7.685372E-2,4.7541472E-1,-7.844506E-2,8.7424405E-2,-3.3349448E-3,-1.0052862E-1,-5.972416E-2,8.51725E-2,1.0508311E-1,3.507739E-2],"categories":[],"categories_nodes":[],"categories_segments":[],"categories_sizes":[],"default_left":[0,0,0,0,0,0,0,0,0,0,0,0,0,0,0],"id":45,"left_children":[1,3,5,7,9,11,13,-1,-1,-1,-1,-1,-1,-1,-1],"loss_changes":[1.02782345E1,1.8409619E0,5.3198566E0,1.5061411E0,2.873764E-1,3.6562753E0,5.0393295E-1,0E0,0E0,0E0,0E0,0E0,0E0,0E0,0E0],"parents":[2147483647,0,0,1,1,2,2,3,3,4,4,5,5,6,6],"right_children":[2,4,6,8,10,12,14,-1,-1,-1,-1,-1,-1,-1,-1],"split_conditions":[5E-1,4.8237812E1,1.5348106E2,1.4065958E2,4.3279408E1,1.3973076E2,-1.100164E0,-7.844506E-2,8.7424405E-2,-3.3349448E-3,-1.0052862E-1,-5.972416E-2,8.51725E-2,1.0508311E-1,3.507739E-2],"split_indices":[88,81,5,58,27,81,6,0,0,0,0,0,0,0,0],"split_type":[0,0,0,0,0,0,0,0,0,0,0,0,0,0,0],"sum_hessian":[1.10310524E2,4.0920742E1,6.938978E1,6.8736362E0,3.4047108E1,3.0655157E1,3.8734623E1,2.9948943E0,3.878742E0,1.3349059E0,3.27122E1,2.155321E1,9.101949E0,3.2557556E1,6.177068E0],"tree_param":{"num_deleted":"0","num_feature":"270","num_nodes":"15","size_leaf_vector":"1"}},{"base_weights":[4.3062523E-2,3.0923524E-1,-3.7087137E-1,-1.582769E-2,4.783688E-1,-1.0113623E-1,-9.9168465E-2,-8.814475E-2,5.808195E-2,1.02662146E-1,3.0137468E-2,-7.17968E-2,6.94987E-2],"categories":[],"categories_nodes":[],"categories_segments":[],"categories_sizes":[],"default_left":[0,0,0,0,0,0,0,0,0,0,0,0,0],"id":46,"left_children":[1,3,5,7,9,-1,11,-1,-1,-1,-1,-1,-1],"loss_changes":[1.4472803E1,4.3982306E0,1.834629E0,3.8102853E0,5.244665E-1,0E0,2.249425E0,0E0,0E0,0E0,0E0,0E0,0E0],"parents":[2147483647,0,0,1,1,2,2,3,3,4,4,6,6],"right_children":[2,4,6,8,10,-1,12,-1,-1,-1,-1,-1,-1],"split_conditions":[5E-1,3.9732834E1,-1.1823211E0,7.6121735E1,5E-1,-1.0113623E-1,9.9999505E-1,-8.814475E-2,5.808195E-2,1.02662146E-1,3.0137468E-2,-7.17968E-2,6.94987E-2],"split_indices":[79,101,6,77,268,0,8,0,0,0,0,0,0],"split_type":[0,0,0,0,0,0,0,0,0,0,0,0,0],"sum_hessian":[1.2931755E2,7.88606E1,5.0456955E1,2.7299421E1,5.156118E1,3.314859E1,1.7308367E1,1.1250502E1,1.604892E1,4.6080906E1,5.4802732E0,1.1067114E1,6.241252E0],"tree_param":{"num_deleted":"0","num_feature":"270","num_nodes":"13","size_leaf_vector":"1"}},{"base_weights":[-4.7707096E-2,1.945854E-1,-4.7151762E-1,2.7872914E-1,-4.3558344E-1,-2.1068539E-1,-1.0225566E-1,-9.683257E-2,7.0163734E-2,4.607177E-3,-9.885633E-2,6.873798E-2,-8.586516E-2],"categories":[],"categories_nodes":[],"categories_segments":[],"categories_sizes":[],"default_left":[0,0,0,0,0,0,0,0,0,0,0,0,0],"id":47,"left_children":[1,3,5,7,9,11,-1,-1,-1,-1,-1,-1,-1],"loss_changes":[1.2255077E1,4.1551676E0,3.421526E-1,3.8943129E0,2.631265E-1,1.0491964E0,0E0,0E0,0E0,0E0,0E0,0E0,0E0],"parents":[2147483647,0,0,1,1,2,2,3,3,4,4,5,5],"right_children":[2,4,6,8,10,12,-1,-1,-1,-1,-1,-1,-1],"split_conditions":[1.20582405E2,1.3282735E2,-2.143704E0,1.9667679E1,-2.1185732E0,1.14041756E2,-1.0225566E-1,-9.683257E-2,7.0163734E-2,4.607177E-3,-9.885633E-2,6.873798E-2,-8.586516E-2],"split_indices":[23,256,60,121,141,265,0,0,0,0,0,0,0],"split_type":[0,0,0,0,0,0,0,0,0,0,0,0,0],"sum_hessian":[1.1745152E2,7.50731E1,4.2378426E1,6.6721725E1,8.351375E0,6.4387417E0,3.5939686E1,5.2670197E0,6.1454704E1,1.016538E0,7.334836E0,1.6593708E0,4.779371E0],"tree_param":{"num_deleted":"0","num_feature":"270","num_nodes":"13","size_leaf_vector":"1"}},{"base_weights":[-1.8152134E-3,-3.8408124E-1,2.2100706E-1,-4.786626E-1,4.0307917E-2,-7.416158E-2,4.736543E-1,-9.7774304E-2,-1.9424936E-2,7.973219E-2,-5.584113E-2,1.048605E-1,-5.2708276E-2,1.0261567E-1,4.2280022E-2],"categories":[],"categories_nodes":[],"categories_segments":[],"categories_sizes":[],"default_left":[0,0,0,0,0,0,0,0,0,0,0,0,0,0,0],"id":48,"left_children":[1,3,5,7,9,11,13,-1,-1,-1,-1,-1,-1,-1,-1],"loss_changes":[8.385914E0,1.4744678E0,4.6738024E0,6.8294525E-2,9.7341293E-1,3.4874966E0,2.3945475E-1,0E0,0E0,0E0,0E0,0E0,0E0,0E0,0E0],"parents":[2147483647,0,0,1,1,2,2,3,3,4,4,5,5,6,6],"right_children":[2,4,6,8,10,12,14,-1,-1,-1,-1,-1,-1,-1,-1],"split_conditions":[5E-1,1.7058984E2,1.5959785E2,9.999976E-1,5.8197136E1,2.513765E1,-1.1843249E0,-9.7774304E-2,-1.9424936E-2,7.973219E-2,-5.584113E-2,1.048605E-1,-5.2708276E-2,1.0261567E-1,4.2280022E-2],"split_indices":[7,248,157,98,55,166,60,0,0,0,0,0,0,0,0],"split_type":[0,0,0,0,0,0,0,0,0,0,0,0,0,0,0],"sum_hessian":[9.645578E1,3.5253098E1,6.1202682E1,2.8723711E1,6.5293865E0,2.855188E1,3.26508E1,2.7701185E1,1.0225263E0,2.960878E0,3.5685084E0,6.4381113E0,2.211377E1,2.7552486E1,5.0983143E0],"tree_param":{"num_deleted":"0","num_feature":"270","num_nodes":"15","size_leaf_vector":"1"}},{"base_weights":[4.2104416E-2,3.0127323E-1,-3.6189035E-1,-3.5573993E-2,4.6272224E-1,-4.9093226E-1,-9.285364E-2,-9.6690916E-2,5.999717E-2,-6.598357E-2,9.862564E-2,-1.0283642E-2,-1.0086145E-1,-5.508099E-2,8.8708095E-2],"categories":[],"categories_nodes":[],"categories_segments":[],"categories_sizes":[],"default_left":[0,0,0,0,0,0,0,0,0,0,0,0,0,0,0],"id":49,"left_children":[1,3,5,7,9,11,13,-1,-1,-1,-1,-1,-1,-1,-1],"loss_changes":[1.2155527E1,3.8579016E0,1.5312009E0,3.7241733E0,1.3152275E0,1.5314054E-1,1.6845678E0,0E0,0E0,0E0,0E0,0E0,0E0,0E0,0E0],"parents":[2147483647,0,0,1,1,2,2,3,3,4,4,5,5,6,6],"right_children":[2,4,6,8,10,12,14,-1,-1,-1,-1,-1,-1,-1,-1],"split_conditions":[5E-1,-1.241594E0,-1.1718563E0,1.0807695E2,7.407361E-1,-2.7606037E0,9.999957E-1,-9.6690916E-2,5.999717E-2,-6.598357E-2,9.862564E-2,-1.0283642E-2,-1.0086145E-1,-5.508099E-2,8.8708095E-2],"split_indices":[7,78,78,184,8,186,44,0,0,0,0,0,0,0,0],"split_type":[0,0,0,0,0,0,0,0,0,0,0,0,0,0,0],"sum_hessian":[1.14054184E2,6.963593E1,4.4418247E1,2.28148E1,4.6821133E1,2.9462128E1,1.49561205E1,9.583161E0,1.323164E1,1.3658152E0,4.545532E1,1.0131614E0,2.8448967E1,1.1521547E1,3.4345727E0],"tree_param":{"num_deleted":"0","num_feature":"270","num_nodes":"15","size_leaf_vector":"1"}},{"base_weights":[-4.4196364E-2,1.7227641E-1,-4.838108E-1,4.281046E-1,-4.8542533E-2,-2.704171E-1,-1.01098694E-1,-8.230602E-2,1.00318335E-1,5.9090704E-2,-8.256932E-2,-7.9451494E-2,2.8289953E-2],"categories":[],"categories_nodes":[],"categories_segments":[],"categories_sizes":[],"default_left":[0,0,0,0,0,0,0,0,0,0,0,0,0],"id":50,"left_children":[1,3,5,7,9,11,-1,-1,-1,-1,-1,-1,-1],"loss_changes":[1.0133236E1,4.0598717E0,2.574253E-2,2.2565093E0,5.0436773E0,3.3769158E-1,0E0,0E0,0E0,0E0,0E0,0E0,0E0],"parents":[2147483647,0,0,1,1,2,2,3,3,4,4,5,5],"right_children":[2,4,6,8,10,12,-1,-1,-1,-1,-1,-1,-1],"split_conditions":[1.2555376E2,8.5468445E1,-2.1654952E0,1.6790749E1,-1.5141242E0,5E-1,-1.01098694E-1,-8.230602E-2,1.00318335E-1,5.9090704E-2,-8.256932E-2,-7.9451494E-2,2.8289953E-2],"split_indices":[194,162,240,248,42,88,0,0,0,0,0,0,0],"split_type":[0,0,0,0,0,0,0,0,0,0,0,0,0],"sum_hessian":[1.0460536E2,7.049881E1,3.4106556E1,3.2225487E1,3.8273323E1,4.388445E0,2.971811E1,2.2232676E0,3.0002218E1,1.9782543E1,1.849078E1,3.3822906E0,1.0061544E0],"tree_param":{"num_deleted":"0","num_feature":"270","num_nodes":"13","size_leaf_vector":"1"}},{"base_weights":[2.7053422E-4,-3.7029725E-1,2.1941382E-1,-9.814918E-2,4.186997E-2,-7.378306E-2,4.7522083E-1,7.9197705E-2,-6.927388E-2,-6.317351E-2,6.872709E-2,-6.544058E-4,9.9702865E-2],"categories":[],"categories_nodes":[],"categories_segments":[],"categories_sizes":[],"default_left":[0,0,0,0,0,0,0,0,0,0,0,0,0],"id":51,"left_children":[1,3,5,-1,7,9,11,-1,-1,-1,-1,-1,-1],"loss_changes":[7.0292497E0,1.6174603E0,4.114565E0,0E0,1.2639297E0,2.757022E0,3.2689428E-1,0E0,0E0,0E0,0E0,0E0,0E0],"parents":[2147483647,0,0,1,1,2,2,4,4,5,5,6,6],"right_children":[2,4,6,-1,8,10,12,-1,-1,-1,-1,-1,-1],"split_conditions":[5E-1,1.6820177E2,1.5348106E2,-9.814918E-2,5.941004E1,1.0557492E2,5.3748875E0,7.9197705E-2,-6.927388E-2,-6.317351E-2,6.872709E-2,-6.544058E-4,9.9702865E-2],"split_indices":[178,176,5,0,171,2,243,0,0,0,0,0,0],"split_type":[0,0,0,0,0,0,0,0,0,0,0,0,0],"sum_hessian":[8.455868E1,3.1166641E1,5.339204E1,2.3970913E1,7.195728E0,2.5209442E1,2.8182596E1,3.752793E0,3.4429348E0,1.6109766E1,9.099676E0,1.3481691E0,2.6834427E1],"tree_param":{"num_deleted":"0","num_feature":"270","num_nodes":"13","size_leaf_vector":"1"}},{"base_weights":[3.8344685E-2,2.9683492E-1,-3.464079E-1,-2.5527757E-2,4.721478E-1,-9.962689E-2,-7.505303E-2,-8.1702285E-2,5.2601703E-2,1.0122021E-1,2.5226403E-2,-6.2037833E-2,8.742186E-2],"categories":[],"categories_nodes":[],"categories_segments":[],"categories_sizes":[],"default_left":[0,0,0,0,0,0,0,0,0,0,0,0,0],"id":52,"left_children":[1,3,5,7,9,-1,11,-1,-1,-1,-1,-1,-1],"loss_changes":[1.0108775E1,3.4434185E0,1.6461792E0,2.5757837E0,3.9881134E-1,0E0,2.0433972E0,0E0,0E0,0E0,0E0,0E0,0E0],"parents":[2147483647,0,0,1,1,2,2,3,3,4,4,6,6],"right_children":[2,4,6,8,10,-1,12,-1,-1,-1,-1,-1,-1],"split_conditions":[5E-1,3.9607933E1,-1.1842123E0,8.374188E1,5E-1,-9.962689E-2,9.999955E-1,-8.1702285E-2,5.2601703E-2,1.0122021E-1,2.5226403E-2,-6.2037833E-2,8.742186E-2],"split_indices":[169,191,87,184,268,0,62,0,0,0,0,0,0],"split_type":[0,0,0,0,0,0,0,0,0,0,0,0,0],"sum_hessian":[9.960803E1,5.971674E1,3.989129E1,2.1336988E1,3.837975E1,2.504935E1,1.4841939E1,8.989338E0,1.2347651E1,3.45289E1,3.8508496E0,1.044222E1,4.3997188E0],"tree_param":{"num_deleted":"0","num_feature":"270","num_nodes":"13","size_leaf_vector":"1"}},{"base_weights":[-4.1632306E-2,1.7630638E-1,-4.600985E-1,3.8323754E-1,-5.6409504E-2,-1.9328488E-1,-1.0086538E-1,-6.333631E-2,8.943069E-2,4.972914E-2,-8.01594E-2,-8.140226E-2,6.293739E-2],"categories":[],"categories_nodes":[],"categories_segments":[],"categories_sizes":[],"default_left":[0,0,0,0,0,0,0,0,0,0,0,0,0],"id":53,"left_children":[1,3,5,7,9,11,-1,-1,-1,-1,-1,-1,-1],"loss_changes":[8.582704E0,3.0082138E0,2.825079E-1,1.6159434E0,3.2579396E0,8.012068E-1,0E0,0E0,0E0,0E0,0E0,0E0,0E0],"parents":[2147483647,0,0,1,1,2,2,3,3,4,4,5,5],"right_children":[2,4,6,8,10,12,-1,-1,-1,-1,-1,-1,-1],"split_conditions":[1.2138429E2,1.10107315E2,-2.0295494E0,1.8103354E1,-1.5336401E0,5E-1,-1.0086538E-1,-6.333631E-2,8.943069E-2,4.972914E-2,-8.01594E-2,-8.140226E-2,6.293739E-2],"split_indices":[5,0,24,41,24,34,0,0,0,0,0,0,0],"split_type":[0,0,0,0,0,0,0,0,0,0,0,0,0],"sum_hessian":[9.221917E1,6.1018963E1,3.1200209E1,3.1956453E1,2.906251E1,5.200097E0,2.6000113E1,2.3431237E0,2.9613329E1,1.5558735E1,1.3503774E1,3.800014E0,1.400083E0],"tree_param":{"num_deleted":"0","num_feature":"270","num_nodes":"13","size_leaf_vector":"1"}},{"base_weights":[1.0570576E-3,-3.57172E-1,2.1482262E-1,-9.7015955E-2,2.1605097E-2,-6.0420413E-2,4.4950917E-1,6.9529116E-2,-7.7785075E-2,-6.1398543E-2,7.478922E-2,-2.2283534E-3,9.712324E-2],"categories":[],"categories_nodes":[],"categories_segments":[],"categories_sizes":[],"default_left":[0,0,0,0,0,0,0,0,0,0,0,0,0],"id":54,"left_children":[1,3,5,-1,7,9,11,-1,-1,-1,-1,-1,-1],"loss_changes":[5.834681E0,1.3901072E0,3.1093817E0,0E0,1.2255322E0,2.5612142E0,4.3576097E-1,0E0,0E0,0E0,0E0,0E0,0E0],"parents":[2147483647,0,0,1,1,2,2,4,4,5,5,6,6],"right_children":[2,4,6,-1,8,10,12,-1,-1,-1,-1,-1,-1],"split_conditions":[5E-1,1.6720882E2,1.5229605E2,-9.7015955E-2,-1.3707261E0,1.3878323E2,8.400969E0,6.9529116E-2,-7.7785075E-2,-6.1398543E-2,7.478922E-2,-2.2283534E-3,9.712324E-2],"split_indices":[268,238,95,0,132,171,21,0,0,0,0,0,0],"split_type":[0,0,0,0,0,0,0,0,0,0,0,0,0],"sum_hessian":[7.419163E1,2.7476147E1,4.6715485E1,2.0330257E1,7.145891E0,2.1841764E1,2.4873718E1,4.068163E0,3.0777278E0,1.4119778E1,7.721987E0,1.8582118E0,2.3015507E1],"tree_param":{"num_deleted":"0","num_feature":"270","num_nodes":"13","size_leaf_vector":"1"}},{"base_weights":[3.5615686E-2,2.817234E-1,-3.4210488E-1,-5.1124394E-2,4.564024E-1,-3.590593E-2,-4.583625E-1,8.394459E-2,-6.8781555E-2,-4.555918E-2,9.657405E-2,-7.609051E-2,4.246981E-2,-4.3241218E-2,-9.925067E-2],"categories":[],"categories_nodes":[],"categories_segments":[],"categories_sizes":[],"default_left":[0,0,0,0,0,0,0,0,0,0,0,0,0,0,0],"id":55,"left_children":[1,3,5,7,9,11,13,-1,-1,-1,-1,-1,-1,-1,-1],"loss_changes":[8.301401E0,3.1624641E0,1.2391825E0,2.8300338E0,7.530451E-1,1.0038761E0,1.2650776E-1,0E0,0E0,0E0,0E0,0E0,0E0,0E0,0E0],"parents":[2147483647,0,0,1,1,2,2,3,3,4,4,5,5,6,6],"right_children":[2,4,6,8,10,12,14,-1,-1,-1,-1,-1,-1,-1,-1],"split_conditions":[5E-1,-1.241594E0,2.715486E1,-2.7533224E0,7.8215426E-1,-1.202147E0,5E-1,8.394459E-2,-6.8781555E-2,-4.555918E-2,9.657405E-2,-7.609051E-2,4.246981E-2,-4.3241218E-2,-9.925067E-2],"split_indices":[25,78,21,78,233,96,151,0,0,0,0,0,0,0,0],"split_type":[0,0,0,0,0,0,0,0,0,0,0,0,0,0,0],"sum_hessian":[8.726405E1,5.2991222E1,3.427283E1,1.8481796E1,3.4509426E1,9.791874E0,2.4480955E1,6.919867E0,1.156193E1,1.0019647E0,3.350746E1,3.8776617E0,5.914212E0,4.219648E0,2.0261309E1],"tree_param":{"num_deleted":"0","num_feature":"270","num_nodes":"15","size_leaf_vector":"1"}},{"base_weights":[-3.8970355E-2,1.605062E-1,-4.7627646E-1,4.05879E-1,-6.8496846E-2,-2.501921E-1,-9.976174E-2,-7.183616E-2,9.200007E-2,5.5038374E-2,-7.197704E-2,1.2085716E-2,-7.2021715E-2],"categories":[],"categories_nodes":[],"categories_segments":[],"categories_sizes":[],"default_left":[0,0,0,0,0,0,0,0,0,0,0,0,0],"id":56,"left_children":[1,3,5,7,9,11,-1,-1,-1,-1,-1,-1,-1],"loss_changes":[7.291048E0,3.261345E0,8.466721E-3,1.3214555E0,3.1656582E0,1.712102E-1,0E0,0E0,0E0,0E0,0E0,0E0,0E0],"parents":[2147483647,0,0,1,1,2,2,3,3,4,4,5,5],"right_children":[2,4,6,8,10,12,-1,-1,-1,-1,-1,-1,-1],"split_conditions":[1.2867297E2,9.623996E1,-2.0340202E0,1.4199498E1,5.7756714E1,1.1473738E2,-9.976174E-2,-7.183616E-2,9.200007E-2,5.5038374E-2,-7.197704E-2,1.2085716E-2,-7.2021715E-2],"split_indices":[266,261,240,229,245,252,0,0,0,0,0,0,0],"split_type":[0,0,0,0,0,0,0,0,0,0,0,0,0],"sum_hessian":[8.170563E1,5.654546E1,2.5160166E1,2.6924234E1,2.9621225E1,3.3772452E0,2.1782919E1,1.4064239E0,2.551781E1,1.3616422E1,1.6004803E1,1.0003937E0,2.3768516E0],"tree_param":{"num_deleted":"0","num_feature":"270","num_nodes":"13","size_leaf_vector":"1"}},{"base_weights":[-1.9031033E-3,-3.5074586E-1,2.0160776E-1,7.6099806E-2,-4.588788E-1,-4.5231685E-2,4.5034558E-1,-6.309764E-2,7.625675E-2,-5.957985E-3,-9.6045226E-2,7.7510804E-2,-5.0883796E-2,1.1913144E-2,9.641171E-2],"categories":[],"categories_nodes":[],"categories_segments":[],"categories_sizes":[],"default_left":[0,0,0,0,0,0,0,0,0,0,0,0,0,0,0],"id":57,"left_children":[1,3,5,7,9,11,13,-1,-1,-1,-1,-1,-1,-1,-1],"loss_changes":[4.742573E0,1.1708744E0,2.6111264E0,8.172874E-1,1.6686678E-1,2.0982547E0,2.3287821E-1,0E0,0E0,0E0,0E0,0E0,0E0,0E0,0E0],"parents":[2147483647,0,0,1,1,2,2,3,3,4,4,5,5,6,6],"right_children":[2,4,6,8,10,12,14,-1,-1,-1,-1,-1,-1,-1,-1],"split_conditions":[5E-1,4.8247925E1,1.5961739E2,1.611695E2,3.318394E1,3.0441353E1,1.5433939E2,-6.309764E-2,7.625675E-2,-5.957985E-3,-9.6045226E-2,7.7510804E-2,-5.0883796E-2,1.1913144E-2,9.641171E-2],"split_indices":[268,261,94,238,235,85,122,0,0,0,0,0,0,0,0],"split_type":[0,0,0,0,0,0,0,0,0,0,0,0,0,0,0],"sum_hessian":[6.480706E1,2.3611153E1,4.1195904E1,4.8322988E0,1.8778854E1,2.10875E1,2.0108406E1,2.1017432E0,2.7305553E0,1.0035063E0,1.7775347E1,6.593533E0,1.4493966E1,1.7254174E0,1.8382988E1],"tree_param":{"num_deleted":"0","num_feature":"270","num_nodes":"15","size_leaf_vector":"1"}},{"base_weights":[3.456319E-2,2.73826E-1,-3.3112678E-1,-8.114868E-2,4.2979768E-1,-9.8523654E-2,-4.5524202E-2,-8.111527E-2,5.7129104E-2,9.393024E-2,1.67069E-2,-8.379599E-2,3.7567373E-2],"categories":[],"categories_nodes":[],"categories_segments":[],"categories_sizes":[],"default_left":[0,0,0,0,0,0,0,0,0,0,0,0,0],"id":58,"left_children":[1,3,5,7,9,-1,11,-1,-1,-1,-1,-1,-1],"loss_changes":[6.8875546E0,2.6650805E0,1.4155068E0,1.9416162E0,4.1840935E-1,0E0,1.1561216E0,0E0,0E0,0E0,0E0,0E0,0E0],"parents":[2147483647,0,0,1,1,2,2,3,3,4,4,6,6],"right_children":[2,4,6,8,10,-1,12,-1,-1,-1,-1,-1,-1],"split_conditions":[5E-1,2.8929504E1,-1.1947958E0,1.02433556E2,5E-1,-9.8523654E-2,8.249613E-1,-8.111527E-2,5.7129104E-2,9.393024E-2,1.67069E-2,-8.379599E-2,3.7567373E-2],"split_indices":[268,264,267,266,79,0,8,0,0,0,0,0,0],"split_type":[0,0,0,0,0,0,0,0,0,0,0,0,0],"sum_hessian":[7.668221E1,4.6505745E1,3.0176466E1,1.43428E1,3.2162945E1,1.8813627E1,1.136284E1,7.5548453E0,6.7879553E0,2.8523645E1,3.639299E0,4.0638714E0,7.2989683E0],"tree_param":{"num_deleted":"0","num_feature":"270","num_nodes":"13","size_leaf_vector":"1"}},{"base_weights":[-3.4752894E-2,1.6644579E-1,-4.504341E-1,-4.243768E-1,2.641292E-1,-2.9172523E-2,-4.7064248E-1,-9.9256605E-2,-6.525463E-3,9.395222E-2,3.7926936E-3,-9.720449E-2,-1.7412864E-2],"categories":[],"categories_nodes":[],"categories_segments":[],"categories_sizes":[],"default_left":[0,0,0,0,0,0,0,0,0,0,0,0,0],"id":59,"left_children":[1,3,5,7,9,-1,11,-1,-1,-1,-1,-1,-1],"loss_changes":[6.235014E0,3.0186453E0,8.08692E-2,1.9588852E-1,2.2008796E0,0E0,8.943033E-2,0E0,0E0,0E0,0E0,0E0,0E0],"parents":[2147483647,0,0,1,1,2,2,3,3,4,4,6,6],"right_children":[2,4,6,8,10,-1,12,-1,-1,-1,-1,-1,-1],"split_conditions":[1.22484436E2,2.1997066E1,1.3166037E2,9.999965E-1,5.6349052E1,-2.9172523E-2,2.9676602E0,-9.9256605E-2,-6.525463E-3,9.395222E-2,3.7926936E-3,-9.720449E-2,-1.7412864E-2],"split_indices":[220,220,220,242,209,0,222,0,0,0,0,0,0],"split_type":[0,0,0,0,0,0,0,0,0,0,0,0,0],"sum_hessian":[7.265429E1,4.936173E1,2.329256E1,6.5288157E0,4.2832912E1,1.9606379E0,2.1331923E1,5.290837E0,1.2379789E0,2.279641E1,2.0036505E1,2.025279E1,1.0791315E0],"tree_param":{"num_deleted":"0","num_feature":"270","num_nodes":"13","size_leaf_vector":"1"}},{"base_weights":[-4.1205734E-3,-2.1194774E-1,3.2056764E-1,2.7107856E-1,-3.3091083E-1,-9.0477735E-2,4.5719218E-1,-5.3256847E-2,7.985808E-2,-7.7288136E-2,4.463599E-2,7.075543E-2,-7.875457E-2,1.7367234E-2,9.527926E-2],"categories":[],"categories_nodes":[],"categories_segments":[],"categories_sizes":[],"default_left":[0,0,0,0,0,0,0,0,0,0,0,0,0,0,0],"id":60,"left_children":[1,3,5,7,9,11,13,-1,-1,-1,-1,-1,-1,-1,-1],"loss_changes":[4.0042577E0,2.1680937E0,1.342243E0,6.36648E-1,9.930644E-1,1.030408E0,8.345914E-2,0E0,0E0,0E0,0E0,0E0,0E0,0E0,0E0],"parents":[2147483647,0,0,1,1,2,2,3,3,4,4,5,5,6,6],"right_children":[2,4,6,8,10,12,14,-1,-1,-1,-1,-1,-1,-1,-1],"split_conditions":[1.6278993E2,2.5179115E1,5E-1,5E-1,1.4016455E2,7.001542E1,1.488254E2,-5.3256847E-2,7.985808E-2,-7.7288136E-2,4.463599E-2,7.075543E-2,-7.875457E-2,1.7367234E-2,9.527926E-2],"split_indices":[247,175,70,124,110,63,176,0,0,0,0,0,0,0,0],"split_type":[0,0,0,0,0,0,0,0,0,0,0,0,0,0,0],"sum_hessian":[5.7333878E1,3.5169643E1,2.2164236E1,6.6974163E0,2.8472225E1,5.6134634E0,1.6550774E1,1.0826972E0,5.6147194E0,2.615372E1,2.318505E0,2.2099576E0,3.4035058E0,1.0881075E0,1.5462666E1],"tree_param":{"num_deleted":"0","num_feature":"270","num_nodes":"15","size_leaf_vector":"1"}},{"base_weights":[3.344352E-2,2.6487443E-1,-3.2719156E-1,-7.100757E-2,4.2416465E-1,-2.0858638E-2,-4.5378208E-1,8.480678E-2,-6.784501E-2,5.7852484E-4,9.802857E-2,-7.1582474E-2,4.8355207E-2,-5.377929E-3,-9.6148394E-2],"categories":[],"categories_nodes":[],"categories_segments":[],"categories_sizes":[],"default_left":[0,0,0,0,0,0,0,0,0,0,0,0,0,0,0],"id":61,"left_children":[1,3,5,7,9,11,13,-1,-1,-1,-1,-1,-1,-1,-1],"loss_changes":[5.829127E0,2.3019285E0,1.050813E0,2.071248E0,8.031192E-1,8.8704956E-1,2.0917988E-1,0E0,0E0,0E0,0E0,0E0,0E0,0E0,0E0],"parents":[2147483647,0,0,1,1,2,2,3,3,4,4,5,5,6,6],"right_children":[2,4,6,8,10,12,14,-1,-1,-1,-1,-1,-1,-1,-1],"split_conditions":[5E-1,-1.241594E0,2.8153286E1,-2.7378106E0,5.7788055E1,-1.228352E0,5E-1,8.480678E-2,-6.784501E-2,5.7852484E-4,9.802857E-2,-7.1582474E-2,4.8355207E-2,-5.377929E-3,-9.6148394E-2],"split_indices":[7,168,12,168,64,15,43,0,0,0,0,0,0,0,0],"split_type":[0,0,0,0,0,0,0,0,0,0,0,0,0,0,0],"sum_hessian":[6.780323E1,4.1461567E1,2.6341663E1,1.3515913E1,2.7945654E1,8.0431185E0,1.8298546E1,4.5454926E0,8.97042E0,3.9254456E0,2.4020208E1,3.3636205E0,4.679498E0,1.205626E0,1.7092918E1],"tree_param":{"num_deleted":"0","num_feature":"270","num_nodes":"15","size_leaf_vector":"1"}},{"base_weights":[-3.1123294E-2,1.5072255E-1,-4.6159732E-1,-3.8296267E-1,2.4174194E-1,-2.1514985E-1,-9.736412E-2,-9.5968E-2,-1.1027713E-3,9.3545236E-2,5.827919E-3,4.964781E-3,-6.312265E-2],"categories":[],"categories_nodes":[],"categories_segments":[],"categories_sizes":[],"default_left":[0,0,0,0,0,0,0,0,0,0,0,0,0],"id":62,"left_children":[1,3,5,7,9,11,-1,-1,-1,-1,-1,-1,-1],"loss_changes":[5.252428E0,2.3902273E0,1.901865E-2,2.635063E-1,1.957252E0,9.559941E-2,0E0,0E0,0E0,0E0,0E0,0E0,0E0],"parents":[2147483647,0,0,1,1,2,2,3,3,4,4,5,5],"right_children":[2,4,6,8,10,12,-1,-1,-1,-1,-1,-1,-1],"split_conditions":[1.2555376E2,2.3225332E1,-2.2051203E0,3.8639587E1,8.795032E1,1.3410669E2,-9.736412E-2,-9.5968E-2,-1.1027713E-3,9.3545236E-2,5.827919E-3,4.964781E-3,-6.312265E-2],"split_indices":[194,166,222,266,180,130,0,0,0,0,0,0,0],"split_type":[0,0,0,0,0,0,0,0,0,0,0,0,0],"sum_hessian":[6.520926E1,4.630038E1,1.8908876E1,6.2786303E0,4.002175E1,2.6403928E0,1.6268484E1,4.780403E0,1.498227E0,1.881862E1,2.120313E1,1.0013665E0,1.6390264E0],"tree_param":{"num_deleted":"0","num_feature":"270","num_nodes":"13","size_leaf_vector":"1"}},{"base_weights":[-6.3185846E-3,-3.4182158E-1,1.7933483E-1,-9.373603E-2,5.2581873E-2,-6.2619396E-2,4.3664783E-1,6.7206316E-2,-6.0515936E-2,-5.9048325E-2,6.1623562E-2,1.0338171E-2,9.692266E-2],"categories":[],"categories_nodes":[],"categories_segments":[],"categories_sizes":[],"default_left":[0,0,0,0,0,0,0,0,0,0,0,0,0],"id":63,"left_children":[1,3,5,-1,7,9,11,-1,-1,-1,-1,-1,-1],"loss_changes":[3.2657452E0,9.5881796E-1,2.13012E0,0E0,6.496303E-1,1.6676146E0,2.7949715E-1,0E0,0E0,0E0,0E0,0E0,0E0],"parents":[2147483647,0,0,1,1,2,2,4,4,5,5,6,6],"right_children":[2,4,6,-1,8,10,12,-1,-1,-1,-1,-1,-1],"split_conditions":[5E-1,1.6820177E2,1.5348106E2,-9.373603E-2,6.467613E1,1.0557492E2,1.801978E1,6.7206316E-2,-6.0515936E-2,-5.9048325E-2,6.1623562E-2,1.0338171E-2,9.692266E-2],"split_indices":[178,176,5,0,171,2,255,0,0,0,0,0,0],"split_type":[0,0,0,0,0,0,0,0,0,0,0,0,0],"sum_hessian":[5.0446213E1,1.7670979E1,3.2775234E1,1.3227931E1,4.4430475E0,1.7281702E1,1.5493533E1,2.500942E0,1.9421055E0,1.0743953E1,6.537749E0,1.9467945E0,1.3546739E1],"tree_param":{"num_deleted":"0","num_feature":"270","num_nodes":"13","size_leaf_vector":"1"}},{"base_weights":[3.3896897E-2,2.6330528E-1,-3.1546175E-1,-6.876372E-2,4.1767055E-1,-7.207989E-3,-4.514986E-1,7.609006E-2,-8.0707915E-2,-4.8064953E-3,9.63087E-2,-7.094994E-2,4.4488233E-2,-4.2073266E-3,-9.5430516E-2],"categories":[],"categories_nodes":[],"categories_segments":[],"categories_sizes":[],"default_left":[0,0,0,0,0,0,0,0,0,0,0,0,0,0,0],"id":64,"left_children":[1,3,5,7,9,11,13,-1,-1,-1,-1,-1,-1,-1,-1],"loss_changes":[4.9903307E0,1.9512041E0,1.0335455E0,2.0725074E0,7.3789215E-1,7.6423305E-1,1.7921829E-1,0E0,0E0,0E0,0E0,0E0,0E0,0E0,0E0],"parents":[2147483647,0,0,1,1,2,2,3,3,4,4,5,5,6,6],"right_children":[2,4,6,8,10,12,14,-1,-1,-1,-1,-1,-1,-1,-1],"split_conditions":[5E-1,-1.3023186E0,2.7563145E1,-2.3459446E0,6.827142E1,-1.21528E0,5E-1,7.609006E-2,-8.0707915E-2,-4.8064953E-3,9.63087E-2,-7.094994E-2,4.4488233E-2,-4.2073266E-3,-9.5430516E-2],"split_indices":[187,168,192,168,18,87,223,0,0,0,0,0,0,0,0],"split_type":[0,0,0,0,0,0,0,0,0,0,0,0,0,0,0],"sum_hessian":[6.022926E1,3.6504612E1,2.3724646E1,1.1760368E1,2.4744246E1,7.5866346E0,1.6138012E1,4.963601E0,6.7967677E0,3.204917E0,2.1539328E1,2.801783E0,4.7848516E0,1.0100383E0,1.5127973E1],"tree_param":{"num_deleted":"0","num_feature":"270","num_nodes":"15","size_leaf_vector":"1"}},{"base_weights":[-2.9420875E-2,1.5514587E-1,-4.3918973E-1,3.6555192E-1,-6.1727125E-2,-1.596366E-1,-9.65223E-2,-7.342467E-2,8.9946255E-2,8.277467E-2,-4.573597E-2,-6.804557E-2,3.840886E-2],"categories":[],"categories_nodes":[],"categories_segments":[],"categories_sizes":[],"default_left":[0,0,0,0,0,0,0,0,0,0,0,0,0],"id":65,"left_children":[1,3,5,7,9,11,-1,-1,-1,-1,-1,-1,-1],"loss_changes":[4.567747E0,1.9280577E0,1.5039873E-1,1.4812555E0,1.7953503E0,3.2022643E-1,0E0,0E0,0E0,0E0,0E0,0E0,0E0],"parents":[2147483647,0,0,1,1,2,2,3,3,4,4,5,5],"right_children":[2,4,6,8,10,12,-1,-1,-1,-1,-1,-1,-1],"split_conditions":[1.20582405E2,5.871158E1,-2.143704E0,1.839751E1,7.572693E1,5E-1,-9.65223E-2,-7.342467E-2,8.9946255E-2,8.277467E-2,-4.573597E-2,-6.804557E-2,3.840886E-2],"split_indices":[23,11,60,112,18,268,0,0,0,0,0,0,0],"split_type":[0,0,0,0,0,0,0,0,0,0,0,0,0],"sum_hessian":[5.849526E1,4.0758385E1,1.7736876E1,2.0339668E1,2.0418715E1,3.0133154E0,1.472356E1,1.7496827E0,1.8589985E1,4.921055E0,1.5497661E1,2.0124643E0,1.0008513E0],"tree_param":{"num_deleted":"0","num_feature":"270","num_nodes":"13","size_leaf_vector":"1"}},{"base_weights":[-9.496135E-3,-1.9237068E-1,3.1360024E-1,-3.4288317E-1,1.924947E-1,-7.7156454E-2,4.4349784E-1,-8.5121E-2,2.233853E-2,-3.5825774E-2,8.137156E-2,6.371819E-2,-7.080255E-2,2.8449778E-2,9.2213E-2],"categories":[],"categories_nodes":[],"categories_segments":[],"categories_sizes":[],"default_left":[0,0,0,0,0,0,0,0,0,0,0,0,0,0,0],"id":66,"left_children":[1,3,5,7,9,11,13,-1,-1,-1,-1,-1,-1,-1,-1],"loss_changes":[2.7399952E0,1.7794873E0,8.855314E-1,8.606584E-1,7.8636646E-1,6.645782E-1,1.8122196E-3,0E0,0E0,0E0,0E0,0E0,0E0,0E0,0E0],"parents":[2147483647,0,0,1,1,2,2,3,3,4,4,5,5,6,6],"right_children":[2,4,6,8,10,12,14,-1,-1,-1,-1,-1,-1,-1,-1],"split_conditions":[1.6479944E2,1.0125232E2,5E-1,1.2903874E2,9.999962E-1,6.2431957E1,1.5350731E2,-8.5121E-2,2.233853E-2,-3.5825774E-2,8.137156E-2,6.371819E-2,-7.080255E-2,2.8449778E-2,9.2213E-2],"split_indices":[256,263,70,2,44,63,176,0,0,0,0,0,0,0,0],"split_type":[0,0,0,0,0,0,0,0,0,0,0,0,0,0,0],"sum_hessian":[4.435191E1,2.8580036E1,1.5771873E1,2.0623655E1,7.956381E0,4.0362086E0,1.1735665E1,1.7502378E1,3.1212778E0,2.9706964E0,4.9856844E0,1.5993296E0,2.4368792E0,1.1479291E0,1.0587736E1],"tree_param":{"num_deleted":"0","num_feature":"270","num_nodes":"15","size_leaf_vector":"1"}},{"base_weights":[3.2991223E-2,2.5518903E-1,-3.0797088E-1,-1.3917919E-1,3.916205E-1,-9.3290605E-2,-6.195682E-2,-7.342415E-2,3.298553E-2,2.3030723E-2,9.723701E-2,-6.4227685E-2,3.9391518E-2],"categories":[],"categories_nodes":[],"categories_segments":[],"categories_sizes":[],"default_left":[0,0,0,0,0,0,0,0,0,0,0,0,0],"id":67,"left_children":[1,3,5,7,9,-1,11,-1,-1,-1,-1,-1,-1],"loss_changes":[4.1598315E0,1.8387675E0,8.174622E-1,7.0253915E-1,5.950165E-1,0E0,7.113803E-1,0E0,0E0,0E0,0E0,0E0,0E0],"parents":[2147483647,0,0,1,1,2,2,3,3,4,4,6,6],"right_children":[2,4,6,8,10,-1,12,-1,-1,-1,-1,-1,-1],"split_conditions":[5E-1,2.541139E1,-1.2211019E0,9.373567E1,-1.2875575E0,-9.3290605E-2,1.1949706E2,-7.342415E-2,3.298553E-2,2.3030723E-2,9.723701E-2,-6.4227685E-2,3.9391518E-2],"split_indices":[25,21,24,31,60,0,167,0,0,0,0,0,0],"split_type":[0,0,0,0,0,0,0,0,0,0,0,0,0],"sum_hessian":[5.2869926E1,3.2162117E1,2.070781E1,8.261454E0,2.3900663E1,1.2049492E1,8.658318E0,4.6036234E0,3.6578298E0,6.6567793E0,1.7243883E1,4.206825E0,4.451493E0],"tree_param":{"num_deleted":"0","num_feature":"270","num_nodes":"13","size_leaf_vector":"1"}},{"base_weights":[-2.5381729E-2,1.5245779E-1,-4.3169728E-1,-3.2571515E-1,2.5369757E-1,-2.005382E-2,-9.176264E-2,1.4509101E-2,-8.277165E-2,8.2595885E-2,-1.7778883E-2],"categories":[],"categories_nodes":[],"categories_segments":[],"categories_sizes":[],"default_left":[0,0,0,0,0,0,0,0,0,0,0],"id":68,"left_children":[1,3,5,7,9,-1,-1,-1,-1,-1,-1],"loss_changes":[3.8993492E0,1.9048104E0,1.0149217E-1,2.762671E-1,1.7624855E0,0E0,0E0,0E0,0E0,0E0,0E0],"parents":[2147483647,0,0,1,1,2,2,3,3,4,4],"right_children":[2,4,6,8,10,-1,-1,-1,-1,-1,-1],"split_conditions":[1.24629005E2,2.5139866E1,1.3282735E2,2.4003687E1,-6.4594954E-1,-2.005382E-2,-9.176264E-2,1.4509101E-2,-8.277165E-2,8.2595885E-2,-1.7778883E-2],"split_indices":[256,256,256,111,267,0,0,0,0,0,0],"split_type":[0,0,0,0,0,0,0,0,0,0,0],"sum_hessian":[5.205271E1,3.6640415E1,1.5412297E1,6.014698E0,3.0625717E1,1.5208831E0,1.3891414E1,1.1220136E0,4.8926845E0,2.0765652E1,9.860064E0],"tree_param":{"num_deleted":"0","num_feature":"270","num_nodes":"11","size_leaf_vector":"1"}},{"base_weights":[-7.809681E-3,1.5884535E-1,-3.4187984E-1,-7.9139136E-2,3.0569398E-1,-4.293715E-1,5.483627E-2,8.569056E-3,9.2317544E-2,-9.3004555E-2,-5.325079E-3],"categories":[],"categories_nodes":[],"categories_segments":[],"categories_sizes":[],"default_left":[0,0,0,0,0,0,0,0,0,0,0],"id":69,"left_children":[1,3,5,-1,7,9,-1,-1,-1,-1,-1],"loss_changes":[2.306459E0,2.374339E0,8.605144E-1,0E0,8.998172E-1,1.664784E-1,0E0,0E0,0E0,0E0,0E0],"parents":[2147483647,0,0,1,1,2,2,4,4,5,5],"right_children":[2,4,6,-1,8,10,-1,-1,-1,-1,-1],"split_conditions":[-1.2187735E0,-2.019459E0,1.5621509E2,-7.9139136E-2,8.731017E1,1.2979941E2,5.483627E-2,8.569056E-3,9.2317544E-2,-9.3004555E-2,-5.325079E-3],"split_indices":[60,60,92,0,76,263,0,0,0,0,0],"split_type":[0,0,0,0,0,0,0,0,0,0,0],"sum_hessian":[3.9452164E1,2.6671349E1,1.2780816E1,5.229339E0,2.1442009E1,1.1456786E1,1.3240298E0,8.45726E0,1.298475E1,1.0383044E1,1.0737417E0],"tree_param":{"num_deleted":"0","num_feature":"270","num_nodes":"11","size_leaf_vector":"1"}},{"base_weights":[3.1099122E-2,2.5617197E-1,-2.9978016E-1,-3.9633993E-2,4.345275E-1,-9.308534E-2,-4.477051E-2,-8.326792E-2,4.8931323E-2,9.3526E-2,1.0519827E-2,-5.2671827E-2,6.95129E-2],"categories":[],"categories_nodes":[],"categories_segments":[],"categories_sizes":[],"default_left":[0,0,0,0,0,0,0,0,0,0,0,0,0],"id":70,"left_children":[1,3,5,7,9,-1,11,-1,-1,-1,-1,-1,-1],"loss_changes":[3.6659427E0,1.5589678E0,8.228091E-1,1.3771857E0,2.069447E-1,0E0,8.608894E-1,0E0,0E0,0E0,0E0,0E0,0E0],"parents":[2147483647,0,0,1,1,2,2,3,3,4,4,6,6],"right_children":[2,4,6,8,10,-1,12,-1,-1,-1,-1,-1,-1],"split_conditions":[5E-1,4.002455E1,-1.1894661E0,8.724939E1,5E-1,-9.308534E-2,9.999958E-1,-8.326792E-2,4.8931323E-2,9.3526E-2,1.0519827E-2,-5.2671827E-2,6.95129E-2],"split_indices":[259,245,177,257,169,0,143,0,0,0,0,0,0],"split_type":[0,0,0,0,0,0,0,0,0,0,0,0,0],"sum_hessian":[4.7194626E1,2.8222628E1,1.8971996E1,1.0908484E1,1.7314144E1,1.1000968E1,7.971028E0,4.491903E0,6.4165816E0,1.5726689E1,1.5874555E0,5.3301086E0,2.6409192E0],"tree_param":{"num_deleted":"0","num_feature":"270","num_nodes":"13","size_leaf_vector":"1"}},{"base_weights":[-2.4798378E-2,1.3827811E-1,-8.992499E-2,3.4749496E-1,-6.3693084E-2,-5.7442017E-2,8.497229E-2,3.502111E-2,-7.512016E-2],"categories":[],"categories_nodes":[],"categories_segments":[],"categories_sizes":[],"default_left":[0,0,0,0,0,0,0,0,0],"id":71,"left_children":[1,3,-1,5,7,-1,-1,-1,-1],"loss_changes":[3.366796E0,1.5109513E0,0E0,9.794557E-1,1.4639872E0,0E0,0E0,0E0,0E0],"parents":[2147483647,0,0,1,1,3,3,4,4],"right_children":[2,4,-1,6,8,-1,-1,-1,-1],"split_conditions":[1.3016563E2,1.0149008E2,-8.992499E-2,1.4659415E1,-1.3756939E0,-5.7442017E-2,8.497229E-2,3.502111E-2,-7.512016E-2],"split_indices":[76,72,0,238,78,0,0,0,0],"split_type":[0,0,0,0,0,0,0,0,0],"sum_hessian":[4.670005E1,3.4233486E1,1.2466565E1,1.6461214E1,1.7772272E1,1.4938146E0,1.49674E1,1.0314227E1,7.458044E0],"tree_param":{"num_deleted":"0","num_feature":"270","num_nodes":"9","size_leaf_vector":"1"}},{"base_weights":[-5.7455227E-3,-3.2941824E-1,1.6025148E-1,-9.068954E-2,4.7939114E-2,-1.8836439E-2,8.725607E-2,6.25005E-2,-5.0295502E-2,-4.4536825E-2,7.1009226E-2],"categories":[],"categories_nodes":[],"categories_segments":[],"categories_sizes":[],"default_left":[0,0,0,0,0,0,0,0,0,0,0],"id":72,"left_children":[1,3,5,-1,7,9,-1,-1,-1,-1,-1],"loss_changes":[1.9947206E0,6.1051345E-1,1.222477E0,0E0,3.967354E-1,1.2875608E0,0E0,0E0,0E0,0E0,0E0],"parents":[2147483647,0,0,1,1,2,2,4,4,5,5],"right_children":[2,4,6,-1,8,10,-1,-1,-1,-1,-1],"split_conditions":[5E-1,1.6720882E2,1.6475348E2,-9.068954E-2,6.467613E1,1.3973076E2,8.725607E-2,6.25005E-2,-5.0295502E-2,-4.4536825E-2,7.1009226E-2],"split_indices":[88,58,193,0,81,81,0,0,0,0,0],"split_type":[0,0,0,0,0,0,0,0,0,0,0],"sum_hessian":[3.514327E1,1.1579757E1,2.3563513E1,8.56348E0,3.0162766E0,1.4856411E1,8.707102E0,1.5781366E0,1.4381399E0,9.876152E0,4.9802594E0],"tree_param":{"num_deleted":"0","num_feature":"270","num_nodes":"11","size_leaf_vector":"1"}},{"base_weights":[2.8551599E-2,2.4670063E-1,-2.9397747E-1,-5.8917016E-2,4.168267E-1,-9.170549E-2,-4.6549078E-2,6.436419E-2,-6.569034E-2,1.7090364E-3,9.4046436E-2,-5.3162493E-2,6.933048E-2],"categories":[],"categories_nodes":[],"categories_segments":[],"categories_sizes":[],"default_left":[0,0,0,0,0,0,0,0,0,0,0,0,0],"id":73,"left_children":[1,3,5,7,9,-1,11,-1,-1,-1,-1,-1,-1],"loss_changes":[3.0702798E0,1.3742863E0,6.9713295E-1,1.1482707E0,3.623023E-1,0E0,7.95774E-1,0E0,0E0,0E0,0E0,0E0,0E0],"parents":[2147483647,0,0,1,1,2,2,3,3,4,4,6,6],"right_children":[2,4,6,8,10,-1,12,-1,-1,-1,-1,-1,-1],"split_conditions":[5E-1,-1.2359567E0,-1.1842123E0,-2.2213874E0,7.517321E1,-9.170549E-2,9.999955E-1,6.436419E-2,-6.569034E-2,1.7090364E-3,9.4046436E-2,-5.3162493E-2,6.933048E-2],"split_indices":[169,267,87,267,18,0,35,0,0,0,0,0,0],"split_type":[0,0,0,0,0,0,0,0,0,0,0,0,0],"sum_hessian":[4.1606323E1,2.4959541E1,1.6646782E1,9.159296E0,1.5800244E1,9.485419E0,7.1613636E0,3.7160745E0,5.4432216E0,1.9618709E0,1.3838373E1,4.805578E0,2.3557851E0],"tree_param":{"num_deleted":"0","num_feature":"270","num_nodes":"13","size_leaf_vector":"1"}},{"base_weights":[-2.3565434E-2,1.3240437E-1,-8.8245325E-2,3.6237434E-1,-7.1119696E-2,-4.0988572E-2,8.53702E-2,4.1363522E-2,-6.476056E-2],"categories":[],"categories_nodes":[],"categories_segments":[],"categories_sizes":[],"default_left":[0,0,0,0,0,0,0,0,0],"id":74,"left_children":[1,3,-1,5,7,-1,-1,-1,-1],"loss_changes":[2.8471246E0,1.5206414E0,0E0,6.419822E-1,1.3156227E0,0E0,0E0,0E0,0E0],"parents":[2147483647,0,0,1,1,3,3,4,4],"right_children":[2,4,-1,6,8,-1,-1,-1,-1],"split_conditions":[1.2867297E2,9.623996E1,-8.8245325E-2,2.0645653E1,6.2226784E1,-4.0988572E-2,8.53702E-2,4.1363522E-2,-6.476056E-2],"split_indices":[266,261,0,221,245,0,0,0,0],"split_type":[0,0,0,0,0,0,0,0,0],"sum_hessian":[4.1809265E1,3.093864E1,1.0870624E1,1.4159153E1,1.677949E1,1.222659E0,1.2936494E1,8.076883E0,8.702606E0],"tree_param":{"num_deleted":"0","num_feature":"270","num_nodes":"9","size_leaf_vector":"1"}},{"base_weights":[-7.86782E-3,-3.234683E-1,1.5264423E-1,-8.603074E-2,5.705211E-2,-6.6111766E-2,2.4250625E-1,5.3557366E-2,-3.2841694E-2,7.312659E-2,-2.733617E-2],"categories":[],"categories_nodes":[],"categories_segments":[],"categories_sizes":[],"default_left":[0,0,0,0,0,0,0,0,0,0,0],"id":75,"left_children":[1,3,5,-1,7,-1,9,-1,-1,-1,-1],"loss_changes":[1.683178E0,4.7895932E-1,1.0379627E0,0E0,1.9942932E-1,0E0,9.452673E-1,0E0,0E0,0E0,0E0],"parents":[2147483647,0,0,1,1,2,2,4,4,6,6],"right_children":[2,4,6,-1,8,-1,10,-1,-1,-1,-1],"split_conditions":[5E-1,1.688362E2,-1.9987676E0,-8.603074E-2,6.701089E1,-6.6111766E-2,-1.2272804E0,5.3557366E-2,-3.2841694E-2,7.312659E-2,-2.733617E-2],"split_indices":[7,68,42,0,18,0,42,0,0,0,0],"split_type":[0,0,0,0,0,0,0,0,0,0,0],"sum_hessian":[3.1251823E1,1.0193679E1,2.1058146E1,7.8596554E0,2.3340232E0,2.8820999E0,1.8176044E1,1.0877459E0,1.2462775E0,1.3747733E1,4.428312E0],"tree_param":{"num_deleted":"0","num_feature":"270","num_nodes":"11","size_leaf_vector":"1"}},{"base_weights":[2.8033404E-2,2.3818885E-1,-2.9409093E-1,-1.2006194E-2,4.404762E-1,-9.129017E-2,-4.1889835E-2,-6.979204E-2,5.094489E-2,9.372981E-2,1.607482E-2,-5.379383E-2,4.4378955E-2],"categories":[],"categories_nodes":[],"categories_segments":[],"categories_sizes":[],"default_left":[0,0,0,0,0,0,0,0,0,0,0,0,0],"id":76,"left_children":[1,3,5,7,9,-1,11,-1,-1,-1,-1,-1,-1],"loss_changes":[2.635558E0,1.1940063E0,6.1188567E-1,1.1200972E0,9.43563E-2,0E0,4.871498E-1,0E0,0E0,0E0,0E0,0E0,0E0],"parents":[2147483647,0,0,1,1,2,2,3,3,4,4,6,6],"right_children":[2,4,6,8,10,-1,12,-1,-1,-1,-1,-1,-1],"split_conditions":[5E-1,4.1384045E1,-1.1947958E0,8.724939E1,5E-1,-9.129017E-2,9.9999505E-1,-6.979204E-2,5.094489E-2,9.372981E-2,1.607482E-2,-5.379383E-2,4.4378955E-2],"split_indices":[268,264,267,257,124,0,188,0,0,0,0,0,0],"split_type":[0,0,0,0,0,0,0,0,0,0,0,0,0],"sum_hessian":[3.6897396E1,2.2487206E1,1.4410192E1,1.0473686E1,1.2013519E1,8.273851E0,6.13634E0,4.4914565E0,5.982229E0,1.0862268E1,1.1512508E0,3.2870362E0,2.849304E0],"tree_param":{"num_deleted":"0","num_feature":"270","num_nodes":"13","size_leaf_vector":"1"}},{"base_weights":[-2.0941045E-2,1.3759692E-1,-4.1854447E-1,-7.344567E-2,2.1372674E-1,-2.5022397E-2,-9.202761E-2,6.215286E-2,-5.4385167E-2],"categories":[],"categories_nodes":[],"categories_segments":[],"categories_sizes":[],"default_left":[0,0,0,0,0,0,0,0,0],"id":77,"left_children":[1,3,5,-1,7,-1,-1,-1,-1],"loss_changes":[2.4917052E0,1.1684175E0,7.980168E-2,0E0,1.2756547E0,0E0,0E0,0E0,0E0],"parents":[2147483647,0,0,1,1,2,2,4,4],"right_children":[2,4,6,-1,8,-1,-1,-1,-1],"split_conditions":[1.2089778E2,2.040596E1,-2.143704E0,-7.344567E-2,1.22484436E2,-2.5022397E-2,-9.202761E-2,6.215286E-2,-5.4385167E-2],"split_indices":[14,130,60,0,220,0,0,0,0],"split_type":[0,0,0,0,0,0,0,0,0],"sum_hessian":[3.761514E1,2.7359797E1,1.0255343E1,3.0842276E0,2.4275568E1,1.7707933E0,8.48455E0,2.0533009E1,3.7425606E0],"tree_param":{"num_deleted":"0","num_feature":"270","num_nodes":"9","size_leaf_vector":"1"}},{"base_weights":[-1.0612605E-2,-1.6959642E-1,3.068436E-1,-3.3119392E-1,2.8739008E-1,-2.9663375E-2,3.7387604E-1,-8.826549E-2,-9.665805E-3,-6.531027E-3,7.3387116E-2,-1.1194956E-2,8.910897E-2],"categories":[],"categories_nodes":[],"categories_segments":[],"categories_sizes":[],"default_left":[0,0,0,0,0,0,0,0,0,0,0,0,0],"id":78,"left_children":[1,3,5,7,9,-1,11,-1,-1,-1,-1,-1,-1],"loss_changes":[1.5260535E0,1.5798141E0,3.6365664E-1,4.5582807E-1,1.5931663E-1,0E0,3.049401E-1,0E0,0E0,0E0,0E0,0E0,0E0],"parents":[2147483647,0,0,1,1,2,2,3,3,4,4,6,6],"right_children":[2,4,6,8,10,-1,12,-1,-1,-1,-1,-1,-1],"split_conditions":[1.0540872E2,1.0797215E2,-1.9987676E0,1.5831198E2,9.9999446E-1,-2.9663375E-2,5E-1,-8.826549E-2,-9.665805E-3,-6.531027E-3,7.3387116E-2,-1.1194956E-2,8.910897E-2],"split_indices":[65,263,42,23,224,0,178,0,0,0,0,0,0],"split_type":[0,0,0,0,0,0,0,0,0,0,0,0,0],"sum_hessian":[2.8205513E1,1.9103926E1,9.101586E0,1.4316615E1,4.7873116E0,1.0126851E0,8.0889015E0,9.901325E0,4.4152894E0,1.0703441E0,3.7169676E0,1.187223E0,6.901678E0],"tree_param":{"num_deleted":"0","num_feature":"270","num_nodes":"13","size_leaf_vector":"1"}},{"base_weights":[2.7941912E-2,-2.6102248E-1,2.531111E-1,6.0315933E-2,-3.9465675E-1,-6.6016726E-2,3.5280207E-1,-8.9974515E-2,1.3891883E-2,8.768563E-2,1.95357E-2],"categories":[],"categories_nodes":[],"categories_segments":[],"categories_sizes":[],"default_left":[0,0,0,0,0,0,0,0,0,0,0],"id":79,"left_children":[1,3,5,-1,7,-1,9,-1,-1,-1,-1],"loss_changes":[2.2894752E0,1.2812029E0,1.2625867E0,0E0,3.624518E-1,0E0,3.355136E-1,0E0,0E0,0E0,0E0],"parents":[2147483647,0,0,1,1,2,2,4,4,6,6],"right_children":[2,4,6,-1,8,-1,10,-1,-1,-1,-1],"split_conditions":[-1.241594E0,-2.7378106E0,8.0916566E-1,6.0315933E-2,-1.1693386E0,-6.6016726E-2,5E-1,-8.9974515E-2,1.3891883E-2,8.768563E-2,1.95357E-2],"split_indices":[168,168,206,0,15,0,